1853 32
- 1.1448209 -1.8153446 0.9684033 0.87170106 -1.9151882 -2.0649912 0.29420555 -0.39375818 1.8918082 1.2392836 0.71971256 -0.8274121 -1.6586046 0.5132244 0.90078676 0.067208454 0.37151316 1.5420545 -0.32699054 -1.7363169 -1.556499 -1.514474 1.8148221 2.0469885 1.4250034 -0.14230539 3.0659459 0.3093231 -0.095153034 -0.3905866 -1.5153857 1.0007149
said 0.6817679 0.21362534 0.790396 -1.4787937 -0.33805665 -0.7519076 0.9581482 -0.577555 -1.7025225 -0.59295416 -0.673398 0.37108353 -0.011482347 -1.413212 0.81753874 -1.1052825 0.8093292 0.3042068 -0.6469847 -0.15914541 -0.9383532 0.8101514 -0.26946765 -1.6034023 -0.1350425 -0.2916982 -0.8473212 -1.2387842 0.7106425 0.41588354 -0.28073162 1.6814944
year 0.2902854 -2.553733 0.26394686 1.369683 0.9331127 1.457422 -1.4872856 -0.2610338 0.9045785 -0.6212534 0.47775894 0.23126465 -0.18327662 3.7801902 3.6188626 1.1640246 0.4236393 0.20235857 -0.13050166 -0.42882797 -0.32701573 1.5811197 -1.4435127 -1.3715949 -0.14333552 -2.6222632 -1.8120768 -0.15550879 0.18186006 0.5118443 -0.29979986 1.8240995
would 0.77085257 0.586178 -0.80428356 -0.080769494 -0.20332205 -0.9809089 -0.72253007 0.0866034 -0.53146285 -1.2027647 -0.32178858 0.9941708 -1.3473698 -0.31642267 -0.24578033 -0.8629539 -0.2670345 0.931922 -0.075666435 1.1238699 0.61835974 0.27354315 0.11187956 -0.6816468 -0.7806036 -0.7549679 -0.5699144 0.054397974 0.62109214 0.84234303 -0.533153 -0.7945282
also -0.6633968 -0.021027884 0.28651807 0.021897085 -0.42949188 -0.17567632 0.017395113 0.07537374 -0.050759982 0.015726464 -0.23133759 0.2313689 -0.26527345 0.18957698 -0.42040515 -0.5479082 0.05246454 0.1530313 0.40000987 0.9450331 -0.15957205 0.40623608 0.10975163 0.4692372 -0.021007262 -0.017317759 0.16529703 -0.24788214 0.51599383 -0.2859393 -0.8886977 -0.39675188
peopl 1.077546 -0.3180119 -1.0230637 0.98227364 -0.86441404 -1.6485757 -1.0187484 -1.3087444 -0.0030448488 -1.688159 -0.8640951 1.3078609 -0.4466071 0.17525743 -1.0558072 -0.7901703 0.46681908 0.6438721 0.8393767 2.4313977 -0.20779572 0.103287384 0.39602375 -0.6715114 -0.1591109 -0.5855361 -0.8515879 -1.3834758 -0.9179825 -0.40633044 0.60114634 -0.86389863
new -1.9745015 0.31672612 1.0659866 -0.12598929 -1.4820211 -0.7049612 0.13932078 0.37043923 0.95861316 -0.1857871 -0.58207965 0.046302665 -0.010751587 0.92783386 0.6176742 -0.32106227 -0.09003871 0.17362104 0.25554794 0.821836 0.5794265 -0.18813163 -0.40553686 0.30509555 1.0412321 0.3386363 -0.06966906 -0.37209752 0.44148275 -0.026628843 -1.0723699 -0.07541234
one 0.30851254 -0.9820418 -0.47859207 0.25237626 -0.35363606 -0.12032252 -0.25206387 0.18948334 0.60766983 -0.43852726 -0.15972917 -0.090950936 -0.08938178 0.40421954 0.44314998 -0.030358857 -0.019086605 0.13904174 0.8493439 0.97220343 -0.098195456 -0.32761484 -0.7950101 0.2534196 1.0080477 0.11852742 -0.94496703 -1.3213245 -0.3242622 0.09362452 0.15047935 0.88013816
: 2.534809 0.027201109 -0.5362235 -1.6120667 1.0834482 -0.26171586 -0.27445576 1.7888054 -1.0015367 -0.3281006 0.46138144 -0.7044449 -0.55012524 -0.3642513 -1.0936003 -0.22031955 -0.105295524 2.4914334 -0.31338334 1.4319032 0.7110843 0.9262176 1.2520435 -0.5809019 -0.9951091 -1.0773588 0.54423165 -2.251222 0.91825795 0.5851857 0.42941836 1.3015119
time 1.5755281 -1.2287366 -1.0504551 -0.045129064 0.76618457 0.1770317 -0.8813608 -0.38780728 0.31693462 -1.1467656 0.07363809 -0.44749576 -0.676042 0.8665327 0.9277718 0.47213948 0.3506214 0.7834063 0.18578157 0.41386196 0.15369949 -0.5235407 -0.7584993 0.031962607 0.42836902 -0.88470846 -0.5559544 -1.0523864 0.16496988 0.32666257 0.66304004 0.7648619
game 0.053349428 -3.2287931 -1.4681458 0.42497063 0.29973102 0.71367776 -1.3366663 0.6252941 1.0653195 -0.32360125 -0.013037617 0.11867404 -1.5954404 0.08897379 0.7907353 0.5896877 -0.30722785 0.7952894 -0.17766137 2.06937 -1.0083865 -1.1472328 0.14864399 1.0877804 1.2276036 1.2512426 -2.198298 -1.0178361 -0.27161658 0.284771 -0.07497411 -0.07583702
say 0.8057441 0.8416007 -0.13956389 -0.27320394 -0.36717102 -0.9898592 -0.0485405 -0.65655696 -0.61871564 -0.7773546 -0.83166736 0.64132047 -0.2630029 -0.7285838 -0.32595032 -1.1260858 0.1717922 0.25324312 0.37188366 0.36984238 -0.41140628 0.62728673 -0.13351783 -0.6958306 -0.20386103 -0.63694096 0.03805713 -1.1705759 0.70875686 0.02320115 -0.27090994 0.32439408
use 0.4298228 -0.464675 -0.75607103 0.26256767 -1.3375434 -2.1083827 -0.59155315 -1.27004 0.34067732 -0.8131433 -0.098508 0.767388 -1.0381569 -0.39615917 0.6922317 -0.1945467 0.30018353 0.292742 1.4673427 1.9567804 -1.7111695 -0.29864848 0.8668126 -0.52354145 0.9712388 0.22642997 0.14382352 -0.8569345 -1.32817 -0.79097414 -0.45463446 -0.15513346
could 0.4542065 -0.10742576 -0.84111965 0.5597449 -0.22541466 -1.0957379 -0.54314303 -0.5125842 -0.2575062 -0.77380323 0.024763372 0.85113716 -1.225232 -0.24108472 -0.21033187 -0.5749358 -0.524313 0.20060715 0.21851508 0.91921765 -0.5513938 0.20537403 0.029901387 0.27266404 -0.029786292 -0.05705343 -0.44324788 0.29983234 0.13899487 0.50662076 -0.3367224 -0.80231714
make 0.4900792 -0.593263 -0.9092661 0.09241902 -0.12495169 -0.76880646 -0.49375498 -0.06621819 -0.07134286 -0.45398447 -0.5081385 0.7992145 -1.007332 -0.54110944 -0.0997838 -0.5592494 0.14142516 0.44158664 0.11471499 1.4481767 -0.5267736 -0.20142035 0.5460441 -0.25110224 0.099476784 0.295279 -0.84650946 -0.8918238 0.10013546 0.15894523 -0.19061045 -0.7283144
last -0.007778274 -0.959317 -0.47836584 -1.2242497 -1.2194716 -0.17370057 1.6593035 0.43994853 1.8870457 -0.8638071 -0.6694493 -1.3341331 -0.67649263 1.0148528 -0.9141568 -1.964365 1.5899969 1.004434 -1.1291325 -0.62423193 2.5468287 -1.3590072 -2.7585914 1.1157024 1.7534958 -0.035774488 -0.91455656 0.6196695 0.5413512 0.9892068 -0.17416272 0.51360387
first 0.2624125 -1.2318277 -0.36412233 -0.06392697 -0.37879756 0.15856281 0.13690527 -0.10159908 1.0275588 -0.77489704 -0.4487035 -1.3369824 -0.35179672 0.74595433 -0.069219716 -0.7084419 0.51839995 0.73633593 0.054363985 -0.056276496 0.5243368 -0.8056263 -1.0780017 1.667258 1.7516958 0.8324221 -0.039895166 -0.94338304 0.15189646 0.45617095 0.46217245 0.8875748
two 0.06606178 -0.67350036 -0.36341804 0.096112214 -0.42981082 0.00805282 0.28342998 0.6485144 1.3933042 -0.5145309 -0.19717456 -0.7741867 -0.37376264 0.8584136 0.64991885 -0.47275397 0.2838054 0.499278 0.15285845 -0.17258677 0.87209326 -0.49174085 -1.7031254 0.90572256 1.3291526 0.27084938 -0.9383311 -0.5545913 0.14163662 0.9225292 -0.15584736 1.1890656
like 0.87209606 -1.4835393 -0.9641186 -0.33763924 0.2467015 -0.23156844 -0.972503 -0.1569753 0.12252878 -0.7830376 -0.5358535 0.6180416 -1.2162017 -0.6943725 -0.21509998 -0.04736812 0.04116393 0.40442783 -0.15078495 1.6845108 -0.5509075 -0.69484717 0.2926204 -0.66339564 0.28976962 -0.23064558 -0.95845276 -1.0561798 0.45562893 -0.20821118 0.055768773 -0.55553603
govern 0.0072887307 2.3628283 -0.07066841 0.39561224 -0.59163034 -1.4572942 -0.13403645 -0.72412235 -0.8148335 -1.609963 -0.7551507 1.081885 -1.1459574 0.30459598 0.20960337 -1.4334091 -0.602296 0.32232702 0.22647211 0.17927657 0.97386825 1.4947333 -1.0712172 -0.5353687 -1.1933829 -1.2957901 -0.28605488 0.7409215 1.7648498 1.2747334 -1.1332518 -0.480815
world -0.62965405 -1.8093023 0.18781646 -0.3234771 0.21957278 0.22306405 0.9361109 0.6528852 0.42584407 -0.06981251 0.3227734 -1.7818094 0.12449126 -0.018744143 -0.22513412 1.3776189 -1.4759299 0.15490623 0.3511468 1.4334276 -0.10225039 0.9517302 -1.0639842 0.7607084 0.2868486 0.34591582 -1.2730018 -0.5148642 0.971529 0.08170529 0.74838436 1.2745415
play 0.9627201 -2.111108 -1.3909467 0.1655069 0.9488603 1.0634788 -1.1494789 1.4595127 0.40823317 -0.025762066 -0.5759232 0.1233565 -1.4174122 -0.29537213 -0.21026838 -0.20277718 0.023133542 1.4632549 -0.25241113 1.6894205 -0.6059444 -0.9068717 0.30432558 1.1974686 0.99959606 1.2486898 -1.7419027 -2.3660688 0.67103463 0.6847155 -0.041157514 0.2348219
get 1.8215746 -1.0341467 -1.7380475 0.59593827 0.19388165 -0.8812112 -0.9696205 -0.71584773 0.09071675 -0.9473323 -0.43351412 0.9345643 -1.6215876 -0.7000136 -0.0040532663 -0.65907496 0.1202034 0.9102113 -0.025301734 1.4392949 -0.45950145 -0.7538048 0.4092227 0.13143013 0.5954476 0.2038475 -0.79383755 -0.93452436 -0.21077979 0.52241707 0.4177699 -0.57984775
take 0.064598024 -0.66692793 -0.49294272 0.54366183 -0.006713961 -0.4075947 -0.14914638 0.25154835 -0.058190364 -0.18322307 -0.35326052 0.33619365 -0.7126727 -0.23902276 -0.20377557 -0.66433966 0.18111312 0.08621345 -0.09844878 0.7542159 -0.37981743 -0.097409114 -0.27081296 0.8642339 0.59019643 0.7639128 -0.33615592 -0.75839114 0.2456107 0.8125434 -0.11130169 -0.15227762
film -2.4560986 -1.8614416 1.649545 -0.4503591 -0.43199062 0.7386861 0.19690058 1.2392403 0.18847182 1.2588831 -0.6187159 0.013670693 1.0801964 2.8232255 -0.7024364 -1.2699294 1.8692782 -0.43802685 0.57457554 1.437108 -1.0867559 0.87345886 0.7909753 -0.22528093 0.6812935 -0.41080537 0.41979772 -2.8662906 0.5946491 -2.1061733 -1.9409571 -0.37640327
compani -1.8580419 -0.38802028 0.80493236 -0.9516048 -1.2586923 -1.8010834 0.7477239 -0.7443223 0.08128203 -0.312575 0.89006484 0.26001498 -0.40570366 0.4990528 1.2895733 0.1397877 -0.15255167 -0.6096595 0.58006597 1.2621604 -0.21865793 0.8734865 -0.7010437 -0.31718883 -1.1006725 -0.3316561 -0.9110811 1.5647479 -0.10985229 0.0986344 -1.6865736 -0.33527312
work 0.44093165 0.3659015 -0.5316841 0.3210463 -0.5554139 -0.8526505 -0.6907598 -0.6322097 0.28412 -0.5240422 -0.54291135 0.98434204 -0.6935691 0.094812945 0.43556884 -0.8102759 0.3730182 0.62423503 0.7019876 1.4171492 -0.16124915 -0.36720696 0.22398786 -0.44829333 0.4406607 0.12473222 -1.0062132 -1.3063804 -0.20818675 0.28579515 -0.36093733 -0.32800564
back 1.1672543 -0.40460694 -0.86959374 0.32343096 0.90203243 -0.30656567 -0.9870871 0.41263095 -0.02759222 -0.36572134 -0.4536439 0.20802672 -1.2427074 -0.3199569 0.61039126 -0.6529078 -0.45404816 0.7668233 0.18712826 -0.7229089 -0.13966791 -0.058826815 -0.017773015 1.3905133 0.5013786 0.19054678 0.33498344 -0.18682338 1.0775212 1.0787967 -0.5197408 0.21052225
show -0.37334123 -1.503753 0.60985345 -0.7888254 -0.20993939 0.37843037 0.2829236 -0.1701786 0.18125404 -0.69812584 -0.4129823 -0.690999 0.59571934 0.9790766 -1.2864814 0.21490131 1.2753787 0.042379055 0.03513478 1.2327608 -0.601737 0.1301208 -0.21114904 -0.94441795 0.54934883 -1.3003283 0.105685845 -1.7522178 0.12510327 -1.1225848 0.3284588 0.7450997
firm -1.4988723 -0.4617284 0.6750396 -1.2785116 -1.5116601 -2.5806744 0.8619037 -1.4191297 0.37407267 -0.7957418 1.4710441 -0.15042986 -0.55530274 0.45992863 2.0093606 0.44021824 -0.313656 -0.4266043 1.1884441 0.9708972 -0.49485618 0.94107693 -0.7007034 -0.023396384 -0.9715975 -0.23336582 -0.3303509 2.2938452 -0.36425215 -0.021524874 -1.6504943 0.26996812
best -1.1984103 -2.7165637 0.48417667 0.20324197 0.27856252 1.4080994 -0.44533962 1.8593011 0.16303307 1.6059964 -1.0173429 0.057508457 -0.1491285 2.129435 -1.4182091 -1.8447391 1.6458666 0.0342806 -0.24525607 1.4391569 -0.89762 0.62602264 0.59133035 1.4944164 1.1851953 0.16305561 0.19035588 -3.3260386 1.0376178 -1.25925 -1.52864 -0.45664757
want 1.3505542 -0.0024493379 -1.0650507 -0.41584083 -0.063261636 -0.64436644 -0.6801079 -0.094612285 -0.2172851 -0.46246716 -0.49689245 0.9990651 -1.1646868 -1.1046144 -0.7325981 -0.83779186 -0.28080794 0.8263726 0.19512102 1.9030687 -0.0036668358 -0.0847772 0.33815342 -0.37764803 -0.19543569 -0.006919774 -1.2037443 -1.6269203 0.37780213 0.5110252 -0.16974042 -0.62729365
win 0.57834524 -2.0039954 -1.4072863 1.1793001 2.0837505 1.4215854 -1.4860761 2.509511 0.013842143 0.16159488 -0.90118086 -0.17440045 -1.7493101 0.9229351 -0.11090745 -1.0126798 -0.06560059 1.5110136 -0.9678013 -0.101554155 -0.3506471 0.5096435 0.21768944 2.3235373 1.2242439 0.66153634 0.06270941 -1.3052518 1.518224 0.9621013 -0.41878113 0.15969045
music -1.6550198 -3.3088596 0.8422069 -0.9424547 -0.9135198 0.4382871 -0.27007267 0.14256528 0.5888393 0.8610321 -0.49327675 0.20485963 0.057024058 0.4488391 -0.9990999 0.3156078 1.0291841 -0.36844108 0.7342894 3.7677152 -1.1780118 -0.2750823 0.8127705 0.041119926 0.58109015 0.627092 -1.48865 -3.190945 -0.3048013 -1.7940274 -0.7173461 -0.41426098
month 0.069110826 -1.4709792 -0.33076745 0.8172145 0.54609853 0.81860316 -0.42502874 -0.69577736 1.1003357 -1.8806307 1.3199908 -0.12338584 -0.45003945 3.0337286 3.348449 1.0403557 0.3226789 0.32917088 0.2274642 -0.14552309 0.28401017 1.1758186 -2.8224366 -1.454889 -0.10534309 -2.4486847 -2.3164203 0.94864905 -0.029180577 1.3950948 0.13216738 2.145284
market -1.6496025 -2.0789154 0.80812347 -1.1882831 -0.6513543 -1.1017805 0.68301105 -0.8124631 -0.26598254 -1.1463646 0.6362678 -0.08118923 -1.1165336 0.23234105 0.5342992 0.9414127 -0.3283536 -0.8434988 -0.43364465 2.0839186 0.0955992 0.37602282 -1.2020622 -0.87884784 -1.0305989 -0.569577 -1.3777707 1.8254791 0.6088874 -0.27682605 -0.6762643 -0.5831855
told 2.9512167 0.27513888 0.37352496 -3.6520686 -0.5704937 -0.89400035 1.7949525 -0.4052836 0.09508642 -0.80792606 0.35148996 -1.1300448 1.2676384 -1.5973495 -1.105147 -0.4914952 -0.5382649 0.93618333 0.2701243 -0.23053293 -0.6278246 0.09485811 -1.7009594 -2.0409925 -0.06544985 -2.3792813 -0.26259303 -3.2705705 1.8813289 0.32389215 0.0919747 4.0622725
number -1.2040745 -1.0937929 0.12566978 1.231539 -0.99498135 -0.1699778 0.036307357 -0.26735765 0.8282794 -0.75015336 0.06537272 -0.6759432 -0.095627084 1.5696659 0.10402144 0.50251377 1.149474 0.19347842 0.8250334 1.4647806 0.10169713 0.42400387 -1.2804445 0.6502774 1.0389104 -0.25717676 -0.70365447 -0.13698676 -1.0843607 0.31218 0.503719 0.59516215
report 0.09444055 0.34842524 0.66316664 -1.7379558 -0.61437964 -1.2510508 1.2163234 -1.0232929 -0.08665906 -1.6270255 0.4889705 -1.1510625 0.3994947 0.5607844 -0.14071378 0.42213345 0.058557983 0.28791925 0.3155399 0.33066237 0.409969 1.0923115 -1.4744462 -1.2972077 -0.93509704 -1.8628566 0.0134224845 0.5386317 0.7437903 -0.06455709 -0.11541385 1.492199
plan -0.5228693 2.1568472 0.1926957 0.15063845 -1.0691333 -1.5020196 0.08351805 -0.5501694 0.48117927 -1.2626538 -1.1276591 0.52977264 -0.54049915 0.5239477 0.2668485 -1.0706029 -0.251808 0.4203359 0.94442993 -0.28220135 0.84741527 1.0267761 -0.9598002 -0.15604284 -0.18677647 -1.2686068 0.76536477 0.47466016 1.1542625 0.2571944 -1.234258 -0.32053816
servic 0.48623368 -0.33346692 -0.23797765 -1.0759776 -1.9631482 -2.4580417 0.27850398 -1.9842875 0.9800213 -1.667273 -0.17545457 0.10441694 -0.37496287 -0.7091807 0.03398338 0.32820612 0.1698294 -0.2584252 1.4257858 1.8741914 -0.6364429 0.42586398 -0.29630077 -0.7746134 -0.5377354 -1.4488492 0.5746131 0.44278875 -0.54598844 -1.2526865 -0.14276019 -0.03249899
set -0.19045092 -0.9565748 -0.27513117 0.5333669 0.24137138 -0.46622527 -0.49068743 0.22728601 0.24873145 -0.45096293 -0.3013152 -0.45694855 -0.8825653 0.45153528 0.69310254 0.27220604 -0.005597116 0.31294313 0.12361036 -0.13464035 -0.46291655 0.108280405 -0.14713976 0.9675966 0.78058434 0.24269144 0.38812435 0.17853439 0.49472612 0.20219323 -0.21773173 0.27635995
made 0.380475 -0.11006095 -0.037044097 -0.38993755 -0.20021904 -0.31492642 0.10882313 0.35795894 0.22709577 -0.2048939 0.0424064 -0.18450572 -0.08501075 0.2597669 0.19626796 -0.54449505 0.14350013 0.45671418 0.36617148 0.19906838 0.074778765 0.037552726 -0.07098069 0.27748197 0.21429995 -0.062994495 -0.04801704 -0.79066676 0.3891396 0.2619493 -0.6421538 0.7067589
come 1.2028772 -0.59520316 -0.93634754 -0.41447908 -0.25515404 -0.35515887 -0.19606332 -0.16628112 0.5128526 -0.84223765 -0.4567247 0.25349313 -1.083153 -0.39144108 -0.043718144 -0.8670046 0.18350787 0.76773274 -0.31308582 0.5939547 0.5900917 -1.1292778 -0.4977043 -0.27627802 0.74887556 -0.0010723267 -1.0117712 -0.88197935 0.4864113 0.71898866 0.047795635 0.070656046
includ -2.322903 -0.5909711 1.5133582 -0.09217075 -1.104546 0.31661916 0.7539417 0.40526116 0.46345994 0.8643993 -0.20471628 -0.18342796 0.8330919 1.6621832 -0.20021692 -0.6397786 1.0320971 -0.55537796 0.7860366 0.9711652 -0.50721467 0.6992865 -0.4108956 0.43857944 0.63029295 -0.009235961 -0.275284 -1.3708214 0.2850845 -0.9711219 -1.441189 0.27689278
way 1.1424388 -0.5171824 -1.1766553 0.09323804 -0.2107013 -0.8042423 -1.0053794 -0.32104266 -0.1283574 -0.37177715 -0.16137475 1.1385806 -1.4934806 -0.77321565 0.26319432 -0.47799417 -0.39421305 0.6416175 0.28478405 1.886242 -0.584852 -0.4308857 0.6718023 -0.07173853 0.2666344 0.20234844 -0.7180667 -1.188647 -0.060679715 0.31698513 -0.41053867 -0.7510034
ad 1.3065712 -0.6548247 -0.26229683 -0.9769598 0.33362317 -0.702553 0.25279665 -0.082615815 -1.3238734 -0.6155326 -0.4432994 0.41129556 -0.537186 -0.9428217 0.15287669 -0.653624 0.63379014 0.5529663 -0.9785123 0.14444074 -0.5516123 0.31263563 0.0060905716 -0.9163297 -0.029125946 -0.58341384 -1.0166551 -1.1563534 0.4764294 0.52410746 0.13069421 0.99032116
countri -0.38486588 0.36599764 -0.1130583 0.7420838 0.05674103 -0.8246283 0.13070239 -0.75848997 -0.2570331 -1.1102785 -0.24753451 -0.19788536 -0.9147266 -0.04612648 0.08720599 0.1384441 -1.0711275 -0.003970232 0.30509877 0.8475086 0.27308977 1.2900958 -0.91125476 0.40856755 -0.9464205 -0.28524646 -1.0648167 0.7774071 1.1103184 0.82446545 0.0475114 -0.12736054
player 0.9542231 -3.0205357 -1.200141 -0.56170255 0.3709017 0.435391 -0.9674813 0.76281524 0.83401847 -0.022099476 0.16704997 -0.2470496 -0.95679015 -0.9035444 0.027446425 0.80125046 -0.2935471 1.0843866 0.20557709 2.5688474 -0.6235115 -1.0150219 0.34888437 1.3077841 0.6993413 1.297679 -2.1799133 -1.8322772 -0.20193225 0.3146222 0.32214946 0.61719406
mani -0.09955199 -0.3634064 -0.3540751 0.29695702 -0.9583388 -1.0807602 -0.090888165 -1.0768795 0.25573394 -0.90940744 -0.15370157 0.6241103 -0.68738043 -0.20570058 -0.06101485 -0.5296233 0.33177927 0.0031180393 0.36040604 1.7313149 -0.3599859 -0.13906288 -0.037547775 -0.06252146 0.332517 0.080803275 -0.90142214 -0.36856586 -0.49983722 -0.18524194 -0.16134936 -0.4102546
three 0.2595427 -1.2057093 -0.35696208 -0.2218589 -0.70269734 0.04946932 0.4590474 0.3938698 1.8082981 -0.8411505 -0.20795496 -1.2097219 -0.0031952187 1.4273382 0.3483471 -0.71711475 0.98244905 0.6524535 0.16742635 -0.26616454 0.94520426 -0.67926127 -2.0698876 0.9361056 1.7149844 -0.06278149 -0.94327974 -0.54981405 -0.2733502 0.56716853 0.082898684 1.5648391
week -0.003915264 -0.44690585 -0.07972764 0.49840993 0.70856273 1.3966851 -0.30437165 0.47743306 0.8070729 -1.1818566 0.5667931 -0.057558294 -0.09104979 2.6603434 2.3748264 0.4640271 0.18918118 1.0338689 -0.051801242 -0.104682945 0.73378253 1.1672655 -2.3041272 -1.407443 0.08729016 -1.864765 -2.5389044 -0.65789205 0.53278905 1.704565 -0.34758258 2.1618748
elect -0.11003515 2.2907085 -0.9238044 1.9292736 0.3266835 0.31883836 -1.7536556 1.7837781 0.791358 -2.1726031 -2.4694884 1.6244411 -2.460148 2.291837 1.0114006 -2.115602 -0.23277456 1.805409 -0.74216694 -1.511399 1.2945341 1.4471391 -1.0459055 -1.95511 1.529577 -2.7256596 1.6558295 -0.7995475 2.69811 1.0884022 -1.4573859 -0.4213836
labour 0.8718723 2.6811373 -0.622744 0.8436614 -0.09096506 -0.7187092 -1.3852966 0.9566188 0.2965438 -1.4704375 -1.9020357 1.2880646 -1.789954 0.88068867 -0.10300114 -1.7702967 -0.4908088 1.9368387 0.44334877 -0.75520426 0.6504222 1.3926367 0.0019821448 -0.977605 0.51452535 -2.172096 2.0403385 -0.9204642 2.086314 0.56864876 -1.1018287 -0.14897057
000 -1.418061 -0.43988264 0.62642485 1.7028775 -1.1156058 -1.4820967 -0.14116357 -1.9946728 0.7383451 -2.1841156 -0.99213696 -0.44946888 0.9897803 2.688243 -0.65091383 -1.0800099 2.2693398 -0.5786984 0.3732314 0.24276818 0.4330976 1.5488198 -2.234349 1.1685039 -0.033951055 -1.6835896 -0.17180547 0.7994545 -1.2293979 -0.28045002 1.1493366 0.11359042
parti 1.0190204 2.67431 -0.8569166 0.41685632 -0.43308815 -0.89751035 -1.1330135 1.3218708 0.49971488 -0.9546333 -1.7205131 1.3596736 -1.5300528 0.6696557 -0.31972334 -1.5870848 -0.34698406 1.8812536 0.7286109 -0.19500338 0.8037897 1.2319089 0.1137725 -1.1657249 0.5722566 -2.10237 1.4275128 -1.7074345 1.5046464 0.33123463 -1.1829381 -0.10628863
need 0.9762097 0.2794131 -0.89037645 0.014886773 -0.057515178 -1.509849 -0.7242235 -0.81447166 -0.60309917 -1.0681151 -0.2781054 0.9315388 -1.2525975 -0.8301311 -0.16497147 -0.6430836 -0.34304366 0.26217276 0.10548583 1.3150218 -0.4153608 0.2625691 0.20190117 -0.28061908 -0.58089393 -0.3381816 -0.62305987 -0.08608861 0.4182878 0.46194753 -0.15459476 -0.8793319
look 1.21093 -1.0694264 -1.2354742 -0.24783322 0.052389756 -0.3497114 -0.7434204 0.1826628 0.0782035 -0.7455103 -0.2563469 0.73796225 -1.5150994 -0.76666105 0.12366895 -0.34424964 -0.19467063 0.744076 -0.5546648 1.2391554 -0.26998228 -0.75640416 0.2581025 -0.27414197 0.4479011 0.04218011 -1.2728027 -0.8649293 0.36473978 0.62024105 -0.05766209 -0.3265129
well 0.45049453 -1.5130095 -0.7583329 -0.27769732 0.4992544 -0.009720871 -0.6883198 0.27497432 0.07135759 -0.061066277 -0.2488902 0.5640953 -0.8610617 -0.4045259 -0.102035806 -0.2839243 0.04558246 0.23146875 -0.10014643 1.1378896 -0.6771602 -0.18158972 0.357312 0.45565826 0.28805786 0.2606808 -0.75613284 -0.77248204 0.3883549 -0.1534343 -0.26003054 -0.4924715
next -0.0850229 -0.2333154 -1.3041065 -0.112515196 -1.095693 -0.18969756 0.33084694 0.74989486 2.1190417 -1.6801853 -1.4943821 -0.20172027 -1.9697709 0.7094237 -0.5855585 -1.6819754 0.67300874 1.5203108 -1.3265082 -0.14127809 2.2486503 -1.6529226 -2.1631818 -0.34547663 2.3287137 -0.3680808 -1.2431818 0.28259668 0.6778702 1.0105934 -0.027726527 -0.63065165
expect -0.4395502 -1.0288022 -0.2886984 0.057354383 0.12966831 -0.21991284 0.011357197 -0.024084967 0.03702686 -1.718955 -0.38873175 0.15572941 -1.149038 1.0570524 -0.20380594 -0.69974416 0.53550935 0.26183283 -1.3933704 -0.023276461 0.6111083 0.49612346 -1.518198 -0.575459 0.012018879 -1.3152311 -0.8859883 1.3452528 1.0047424 0.7027098 0.061982207 -0.4339522
call 0.18082315 1.0082399 0.14593223 -0.13646607 -1.0386999 -1.4142569 -0.5395611 -0.3346397 0.2271616 -0.6391267 -0.51420593 0.33731037 -0.56187624 -0.065090716 0.5846654 -0.47263214 -0.08175098 0.53008676 1.5229253 0.28139663 -0.68050385 0.24303268 0.6370248 0.028143888 0.5705209 -0.15362206 1.5214609 -0.41940665 -0.09175711 -0.81021196 -0.9525925 0.2956915
bbc 2.6812754 0.48669925 -0.7657491 -3.58205 0.1266907 -1.0981456 0.9864143 0.4196138 1.4881581 -0.18101889 1.3021625 -2.2872996 1.4608042 0.9578232 -1.8038617 1.569057 0.30026302 1.8996658 2.0346372 1.4272041 -0.5092503 1.0815463 -1.1014327 -1.4832296 -0.16117446 -3.088414 -0.1703907 -4.653941 0.8523854 -0.90090746 0.43439397 2.9191604
home 0.6953957 0.17551418 0.32920954 0.32927504 -0.20607576 -0.6305212 -0.12552585 -0.4711349 -0.62200046 -0.724622 -0.10888794 -0.12556276 0.09656839 0.24535598 0.8089616 -0.66727465 -0.021434499 0.89817613 1.2710183 0.33337784 -0.18292224 0.32532358 0.3168152 0.89355105 0.016758142 0.44937027 0.43797484 -0.93905026 -0.44823152 0.065759555 -0.20904699 1.2032368
day 0.43820202 -0.8710969 -0.38043234 0.551809 0.26172683 0.48935607 -0.61089927 0.16880298 1.1888926 -0.9102343 -0.1666782 -0.66627985 0.13060346 1.8085064 1.101472 0.09709432 0.84057975 0.7022445 0.63087183 -0.2521279 0.39342573 0.012015401 -1.328421 0.35846505 1.2447956 -0.6963485 -0.7313903 -1.3294964 -0.31323886 0.5567616 0.31603137 1.7491839
minist 1.740769 3.2182703 1.2331336 -1.2205254 0.55460376 -0.9851071 -0.37180343 -1.1355808 -1.8009706 -2.2267315 -0.6202055 -1.8484156 -1.3083701 -0.14773765 -0.014561654 -1.3374698 -0.6366128 1.190405 0.23395905 -1.1293911 1.9064506 0.2980776 -0.7005219 -0.25396964 -1.8856188 -1.9655085 0.75234824 -1.5256346 3.2858555 1.3448097 -1.3823882 1.9882467
sale -2.2158942 -3.3869703 0.5641087 -0.52710664 -0.21698254 -0.30864635 0.9214308 -0.6923102 0.44750386 -1.2461246 0.39263356 -0.9839531 -0.5994881 1.4448994 0.108725816 0.26166314 1.0773425 -0.7556047 -1.0039524 1.0058594 -0.042049333 0.37188897 -2.0917242 0.4841152 -0.060681794 -0.42517918 -1.4360514 2.2181692 0.38894403 -0.11613449 -0.18455356 -0.14675258
nation 0.46667644 0.8576179 -0.35317472 0.5464436 0.026263816 0.12073234 -0.10191836 0.39064384 0.1665799 -0.7914238 0.5178979 -0.759575 -0.33947623 0.2775941 0.735237 -0.36023003 -0.8092671 0.84767187 0.5806242 -0.0812002 0.31881055 0.9567586 -1.3683482 1.4609306 -0.7171182 0.23800865 -0.8428166 0.31425667 1.0099266 1.5430892 -0.32870027 1.2314254
good 1.8313915 -1.5804693 -1.3944805 -0.63499933 0.6639932 -0.35857418 -0.6169912 0.14041749 -0.33235365 -0.45233408 -0.09441196 0.4150891 -1.2164193 -1.0610977 -0.68100244 -0.19307016 -0.14354521 0.79312456 -0.77811265 1.4153699 -0.5698734 -0.50265604 0.34086522 -0.040797252 0.021017028 -0.28752998 -1.1510688 -1.4225422 0.7448934 0.2948796 0.3451803 -0.22598657
think 2.1119883 -0.6722807 -1.2455394 -0.6988483 0.62990856 -0.25194833 -0.86480355 0.3449741 -0.5003176 -0.40820166 -0.41377348 0.89913565 -1.1006223 -0.9597176 -0.34552053 -0.6565534 0.008167557 1.0138259 -0.39741182 1.4358902 -0.37057164 -0.264012 0.6706561 -0.7555009 0.06495984 -0.4308613 -1.0508229 -2.3340056 0.56349003 0.510562 0.097600676 0.028452404
second 0.56942606 -2.749398 -0.7229146 0.5512558 0.70894027 -0.22936793 -0.34988526 0.4853644 0.4524147 -0.36089408 0.23404714 -1.3521817 -1.1043432 0.5522283 0.27339894 0.04851019 0.17363563 0.36985293 -0.37977716 -0.40430057 -0.65332305 -0.071051024 -0.6278548 2.7317464 1.174492 0.67261434 0.5635482 0.46223506 0.083965935 0.6170299 0.40424475 0.8192408
right 0.9390627 1.0677112 -0.39908898 -0.56144655 -0.40316108 -1.0646924 -0.6327011 0.33923614 -0.28592947 0.42943457 0.24655034 1.0015414 -0.91047055 -1.0027153 0.22589198 -1.502058 -0.39298669 0.1122814 0.92386454 1.0927954 -0.58609277 -0.06248832 1.1538491 0.4243528 -0.15057908 0.7823088 -0.71420443 -2.0754144 0.7780433 0.5220193 -1.1115898 -0.2564539
technolog -0.39038786 -1.6600965 -0.2444621 -1.0898395 -1.5241967 -2.0990613 -0.19328064 -1.4684018 0.8822812 -0.82001704 0.20609742 0.5781191 -0.916658 -0.34742013 0.9140604 0.58625096 -0.009760581 -0.18368417 1.3520772 3.2147877 -1.4823879 -0.32121456 0.35115144 -1.5555584 0.09695745 -0.22689791 -1.0190854 -0.55232674 -0.8481907 -1.1789494 -0.5486806 -0.51440895
million -1.0509061 -3.8730366 0.069026574 1.1581349 -0.4173762 -0.8007185 0.4211117 -1.5739851 0.53747773 -1.7085941 0.10312307 -1.148382 0.14841296 1.9724015 -0.92851603 0.14107244 2.0548844 -0.53725004 -0.36041152 1.6448269 -1.361336 0.7861105 -1.1761823 0.9586196 0.7668473 -0.90750754 -0.015150604 1.2802292 -1.8733453 -1.0259304 1.4630498 0.5046739
may -0.030032346 0.06335787 -0.42927828 -0.27059907 -0.11356259 -0.26693025 -0.061391305 0.11853049 0.132197 -1.0502931 -0.18754677 0.67992216 -1.031863 0.3968691 -0.048481226 -0.56497055 -0.11956149 0.38109985 -0.579883 0.30033073 0.30464348 0.24182877 -0.7683507 -0.85227215 0.11204802 -1.0849367 -0.6290294 0.35467517 0.9650056 0.4577819 -0.51470804 -0.41956908
help 0.015378093 -0.16913304 -0.47596797 0.2413896 -0.4295116 -1.4349107 -0.29260865 -0.98916227 -0.2545678 -0.6501699 -0.25710714 0.7540607 -1.025998 -0.5149993 -0.3360055 -0.57069194 -0.11807872 -0.10545177 0.35732782 1.2637662 -0.59500664 0.35626447 0.14702588 0.111628115 -0.2663738 -0.096508145 -0.1416505 0.18375866 0.11152691 -0.13356136 -0.52809656 -1.1037858
mobil -0.26872286 -3.0738814 -1.0218705 -0.5978564 -1.6157571 -1.8457067 -0.3039671 -1.1477866 1.3744831 -1.7132434 -0.13369444 -0.42786613 -1.344884 0.29729277 1.3256159 1.4624953 0.3890019 0.33672753 1.2442311 3.1902246 -1.4101937 -0.8665046 -0.6464538 -0.88817394 0.8817927 -0.08188236 -0.618989 0.64486176 -1.7125871 -1.481669 0.2936713 0.36349192
top -1.489591 -2.3444557 0.654979 -0.007001801 -0.077569775 0.5373389 0.2190787 0.7774652 0.8269241 0.32163528 -0.15170763 -1.2582582 0.44278058 1.3926504 0.09353141 0.036936358 1.1690674 0.0061334185 0.22739048 0.5489414 -0.35092086 0.24179469 -0.8374141 1.6615375 1.3082824 0.7038012 -0.4810721 -0.91341585 -0.074226625 -0.10076917 -0.24503501 1.058317
part -0.4991431 0.16330843 -0.22044927 0.26435003 -0.28801116 -0.28024787 -0.32499737 0.031218423 0.12622383 -0.16812183 -0.4234765 0.67029727 -0.5207137 0.26635796 0.0019026012 -0.46883032 -0.27835914 0.09909936 0.23724785 0.7712785 -0.1579468 0.4720754 -0.2843259 0.19421872 0.09225784 -0.17356995 -0.561415 -0.36261374 0.5020685 0.28999645 -0.66345704 -0.3325278
1 -0.6814217 -3.7482812 -0.13814317 0.027421782 1.3498689 -1.5395007 0.3038097 -0.11600817 -0.21669158 -1.861669 -0.08816855 -1.8649603 -1.0565097 1.0521816 -0.8565955 -0.3156151 0.84597266 -0.14240901 -1.2741462 -0.9743329 -1.6412588 1.7647249 -1.0087206 2.413421 0.038366914 -0.82622135 2.2133594 3.3906465 1.0984852 -0.43153074 0.38751993 0.7319017
see 1.0504665 -0.8019711 -1.0187227 -0.054068614 0.08618634 -0.18090715 -0.684331 0.04314731 -0.11449004 -0.74383616 -0.4963046 0.8204492 -1.2176745 -0.46795496 -0.17739892 -0.5655653 -0.004514399 0.515963 -0.49387178 1.3347318 -0.13223597 -0.33487675 0.10982014 -0.63163406 0.044878095 -0.2927036 -1.1201973 -0.9896257 0.4675651 0.5026948 -0.029117122 -0.500359
go 1.909006 -0.72688466 -1.676835 -0.032908343 0.59969974 -0.20920613 -1.1912526 0.4979288 -0.10782352 -0.75590724 -0.527037 1.1393148 -1.7082533 -0.6505567 -0.10701301 -0.71009654 -0.238027 1.2381817 -0.5508607 1.2411226 -0.059158366 -0.571863 0.37261888 -0.4528799 0.5159438 -0.1775605 -1.1837715 -1.5364512 0.5884994 0.8256315 0.12827787 -0.3971303
record -1.4962221 -2.105042 0.6012128 0.24362771 0.028351588 -0.024798712 0.26350608 0.14101838 0.39302403 0.0028537742 -0.3999502 -1.0015241 -0.06793273 1.0209919 -0.3978738 0.29924434 0.58717436 -0.309048 -0.13687369 0.7265934 -0.4351891 0.42330605 -0.5782911 1.0805818 0.38927668 0.30794275 0.020252971 -0.05252658 0.39983654 -0.49902135 -0.1307716 0.050226066
end 0.56279445 -1.4726881 -0.7940648 -0.22075759 0.26870057 -0.1880997 -0.028954627 0.13437492 0.7026191 -0.84794784 -0.19042653 -0.27064246 -1.0264549 0.33079803 0.31066233 -0.36547285 0.27446112 0.465091 -0.62554353 -0.04611511 0.46042344 -0.44900423 -0.8609395 0.54789275 0.7195758 -0.09301973 -0.70719016 0.39170492 0.42410415 0.5217418 0.024751632 0.07568117
award -1.9960071 -2.353647 1.3411868 -0.11036371 -0.18989028 1.9532259 0.14129797 1.9843907 0.726405 1.5048543 -0.8971856 -0.6519123 0.91709626 3.207532 -1.4583247 -1.6768035 2.1310608 0.19587623 0.23242049 1.2849073 -0.22980249 0.8430788 -0.22158061 1.3246958 1.4700085 -0.37567464 -0.16584402 -3.8212469 0.9912497 -1.2046422 -1.6604738 0.6607347
start 0.6039808 -1.5209677 -0.8826797 0.14646886 0.18209602 0.016470706 -0.46919537 0.32193208 0.58123255 -0.66569525 -0.28789288 -0.04245063 -1.0193733 0.14125593 0.34429756 -0.12592794 0.113494925 0.7018217 -0.3659344 0.58309746 0.015982326 -0.5345373 -0.2420408 0.6833876 0.8969744 0.14871694 -0.76917404 -0.3855305 0.13848922 0.4591667 0.10944127 0.06240694
open -0.18209706 -1.3362318 -0.34635445 0.05430876 0.49001303 0.06712406 -0.13846076 0.89678115 0.4520312 -0.015506787 0.1994335 -0.8168849 -0.6249218 0.3975601 0.345922 0.09202368 -0.25835863 0.4986261 -0.015892616 -0.16205263 -0.42394033 0.24702376 -0.28979817 1.868036 0.964523 0.7464509 -0.3313751 -0.045762025 0.43178096 0.69998574 -0.4297161 0.8285517
high -0.025216646 -2.4969146 -0.56600744 -0.43524942 0.6005692 -1.1833091 -0.639614 -0.86242634 0.3394003 -0.658904 -0.40617657 -0.054735415 -1.16159 0.13099012 1.1563758 0.23925753 0.11144496 -1.0193045 0.5765868 0.32959232 -0.96273804 -0.3289217 -0.59049976 0.3625362 0.31378987 0.030929439 0.2861946 1.2153224 0.30079934 -0.98403275 -0.35546553 -0.42476276
2004 -1.7042643 -2.8664613 0.83363795 -0.34783214 -0.19574575 -0.110576734 1.1994748 -0.33870673 0.4426117 -1.0892987 0.2717559 -1.5204216 -0.23134819 1.9989779 -0.24476703 -0.1185173 1.2267718 -0.29889312 -0.89800036 0.05356928 0.102572106 0.7269908 -1.9479986 0.6996546 0.32496706 -0.84141695 -0.21643598 1.7523361 0.7279499 -0.18172017 -0.09850918 0.74930483
share -1.6541275 -2.1702895 0.723409 -1.3478222 -0.38926184 -1.5989625 1.0269012 -0.9207241 0.13054945 -0.36559716 0.7552227 -0.6587746 -0.26116282 0.37033176 0.2961203 0.2661166 0.12229804 -1.2235472 0.019611519 0.5760482 -0.75960004 0.9719732 -1.1525174 0.6729246 -0.73841953 -0.30418584 0.11191828 2.1304488 0.24804309 -0.609076 -1.1117737 -0.07887541
group -1.0672891 0.4208617 0.8114404 -0.8944174 -0.69248086 -0.8082317 0.50039583 0.16240656 0.14678948 0.23397815 0.5545175 -0.1251216 -0.015185125 0.363372 0.416868 -0.17143492 -0.07004566 0.07552087 0.8290782 0.44677114 -0.30747837 0.94143844 -0.12176323 0.1907152 -0.382524 -0.22905566 0.17717622 -0.13697037 0.38613993 -0.042711053 -1.2680709 0.46451047
public 0.21498513 1.5526239 -0.05282716 -0.20166932 -1.1187105 -1.3380104 -0.039831676 -0.47287634 -0.42906684 -0.9760333 -0.56571716 0.9988909 -0.3849634 0.07251537 -0.542603 -1.0061697 -0.010459925 0.012475871 0.6888643 0.8580431 0.22017573 0.970444 -0.24144518 -0.8832177 -0.84769577 -1.4297757 0.23390675 -0.6817767 1.0303507 -0.23849975 -0.96170396 -0.76321507
still 0.94451755 -0.80599546 -0.6954236 -0.12125794 0.21613519 -0.3610977 -0.16069254 -0.24309567 -0.36902192 -0.90869457 0.09225058 0.28821433 -1.1912606 -0.49970523 -0.16159518 -0.34206933 -0.28804573 0.5158662 -0.7493618 0.9668919 0.11630965 -0.046104006 -0.4029412 -0.12803677 -0.31660673 -0.2396368 -1.289126 0.075235225 0.69258356 0.9228102 0.105972044 -0.12967774
offer -0.0018559158 -0.96372145 -0.2638455 -0.9599315 -0.59951556 -1.6631004 0.2226909 -0.72836715 0.35954463 -0.80512613 0.2482231 0.043095857 -0.4673618 -0.5012404 0.34797642 0.37251607 -0.039860208 -0.18727683 0.42284605 0.9588915 -1.0058198 0.34631568 -0.20348966 -0.22759701 -0.42658707 -0.667568 0.18415494 0.92623264 -0.15828419 -0.7088938 -0.40721878 0.05983141
much 0.82662016 -1.1001086 -1.0359066 -0.13283642 0.1983609 -0.66603994 -0.5771223 -0.56269693 -0.19924426 -0.941712 -0.18407196 0.63972896 -1.1592476 -0.47190785 -0.22180894 -0.27209768 -0.0074174185 0.22369517 -0.42176324 1.3811716 -0.37414196 -0.13114087 -0.03485193 -0.65870947 -0.37068668 -0.47900802 -1.1257238 -0.16964747 0.32270136 0.26601213 0.15004937 -0.8374751
phone 0.20632188 -2.6937249 -0.9545296 0.13481264 -1.7249576 -2.0031354 -0.8199092 -1.5562948 1.2727138 -1.6362969 -0.3221308 0.30240613 -1.2497208 -0.06801392 0.9571647 0.8713254 0.23300895 0.2280305 1.6268588 2.8575723 -1.7771993 -0.7175434 0.32936198 -0.54195803 0.93541116 -0.020420145 0.023870997 0.14995392 -1.7864804 -1.1534076 0.09746897 0.16974048
england 2.1187346 -0.70950997 -1.4295458 -0.14704588 1.6548985 0.6860603 -0.97161776 1.6013353 -0.19662946 -0.6125928 0.28099835 -1.0265402 -1.2312702 -0.64651483 -0.0179192 -0.45022866 -1.0549872 1.4750574 -0.45149755 -0.38127577 0.0983005 0.5786809 -0.6284592 2.7905178 0.009334267 0.6161195 -0.68492687 -0.59784603 1.8946202 2.1396828 -0.031353604 1.6585733
claim -0.017603472 1.277281 0.25671205 0.12829208 -0.027630806 -0.7666449 -0.010982228 0.24328928 -0.31106678 -0.42376706 -0.3451133 -0.012074195 -0.43289357 0.2292649 0.13157998 -1.0708253 -0.30729556 0.49781698 0.49628833 -0.8984647 -0.0023311733 1.1477822 -0.45310274 0.67234665 -0.20241532 -0.5213021 1.1109656 -0.0020782219 1.3480483 0.6741163 -1.147777 0.6520364
sinc -0.7716955 -1.6174631 0.26917437 0.00689447 0.25793073 0.7103903 0.5095812 0.29036525 0.3908869 -0.6334717 0.25890893 -1.0676548 -0.24988799 1.577169 0.31633434 -0.023294445 0.3416681 0.20995249 -0.60605717 -0.2510115 0.38751754 0.50243163 -1.5353531 1.0380132 0.442479 -0.3397749 -0.58078367 0.48679906 0.7930028 0.5515484 -0.2592095 1.046802
move 0.23035957 -0.28321317 -0.34978807 -0.14239436 -0.1376976 -0.6451455 -0.19677544 -0.2569652 0.05047696 -0.65269345 -0.06738004 0.21330948 -0.61188436 -0.26324475 0.4666818 -0.17891975 -0.3656625 0.1958488 0.20625871 0.56128144 -0.13612753 0.21663944 -0.4129936 0.15605801 -0.111279085 0.055126794 -0.60310405 0.033070404 0.37750435 0.59538376 -0.37925938 0.20163189
blair 1.2930952 2.9780123 -0.1538953 -0.24096268 0.55884576 -0.11924746 -0.8124981 0.50582266 -0.6576865 -1.5345626 -1.5515947 -0.37172052 -1.0359159 0.40971124 -0.7041899 -1.8454089 -0.3834178 2.2887292 0.65393776 -0.38950297 1.6640484 0.9523864 -0.24178241 -0.4036132 -0.22968622 -1.7085111 1.3912889 -2.233995 3.1198447 1.1933521 -1.2265332 0.9847029
increas -0.24176882 -0.6729534 -0.7572677 0.66735584 -0.5713911 -1.5959814 -0.1896855 -1.5930395 -0.30422968 -1.981137 -0.5438481 0.81871367 -1.4778979 0.32917637 0.08794022 -0.7870542 0.2917152 -0.50823593 -0.40017036 0.74783885 -0.26360047 0.78977156 -1.1868292 -0.2552195 -0.68279624 -1.0812814 -0.33930042 2.4176466 0.44856638 0.053362604 -0.23553888 -1.267271
tri 1.4103621 -0.19933073 -1.1299077 0.48699585 0.47472137 -0.51468897 -0.9464726 0.21461408 -0.17849386 -0.4424355 -0.0010604475 0.38154292 -1.277396 -0.6522942 0.3907934 -0.5909515 -0.5407541 0.8394049 0.12112541 0.5367097 -0.40280432 -0.03410877 0.3644713 1.2070645 0.34922975 0.5200831 -0.36245003 -0.7047513 0.3012291 0.991244 -0.24701314 0.060844664
put 1.0011598 -0.2884554 -0.94503146 0.12118225 0.27170298 -0.7224623 -0.5050964 -0.2413422 -0.15460393 -0.6168512 -0.18884902 0.49119663 -1.1263524 -0.6763795 0.15895502 -0.5384564 -0.20972998 0.38984075 -0.16854815 0.5457236 -0.26397642 -0.17527527 -0.117382966 0.45605946 0.016570685 0.18189435 -0.62270457 -0.31606674 0.56254524 0.8154516 -0.15713428 -0.239969
run 0.2273991 -0.6715383 -0.6364343 0.047252554 0.019787598 -0.4576191 -0.34673253 0.010489783 0.72641784 -0.37458357 -0.18354954 0.10979792 -0.79649156 0.14309533 0.45988002 -0.18745722 -0.054002438 0.32748368 0.24825166 0.1441394 -0.4087388 -0.04808607 -0.19900736 0.41884995 0.84360754 -0.0012527325 0.10218079 -0.083890356 0.1832484 -0.10628108 -0.41117978 -0.029058028
tax -0.26832426 1.5036464 -0.5907969 1.6143737 -0.09207834 -2.6920388 -1.2989703 -1.384178 -1.0481695 -2.277595 -1.6251665 1.7682911 -2.2397864 0.9917909 0.07990289 -2.4508195 0.46824038 -0.28744432 0.009071598 -0.95551795 -0.124861374 2.207552 -1.1063062 0.33969158 -1.2810688 -2.2728782 1.8451797 3.2476645 1.9271746 0.5202078 -1.6137427 -2.0264082
star -1.8651737 -1.6695706 1.5890651 -0.13433558 0.3085914 1.3003156 0.004076435 2.2113335 0.25545025 1.3345937 -0.68755966 -1.0109766 0.92147624 2.4912057 -0.9742595 -1.1253628 1.44215 0.37673634 0.42732412 0.15669505 -0.8859158 1.1116009 0.6729118 1.8129345 1.1702982 0.2648287 1.0961047 -2.9529078 1.2721356 -1.1235892 -1.6866115 1.0770863
hope 0.63046116 -0.6563883 -0.5762539 -0.05109502 0.47249824 0.2610112 -0.34396803 0.7769497 0.030191416 -0.36319193 -0.4285677 0.19674577 -0.80745775 0.069855094 -0.3710456 -0.802528 0.06127402 0.7846261 -0.6994702 0.3433506 0.27808258 0.009643758 -0.21997218 0.18242313 0.23671435 -0.22924207 -0.71146303 -0.7734816 0.82956463 0.7303149 -0.11712335 -0.10536299
even 0.914091 -0.98234785 -0.88105226 0.066598296 0.23197156 -0.17423366 -0.626685 0.028746242 0.17644022 -0.40222767 -0.20321698 0.25769952 -0.86374474 -0.117112696 -0.11001329 -0.22332068 0.056526866 0.47174904 0.036130127 0.8852034 -0.46668065 -0.35741496 0.007824688 0.20868286 0.52711076 -0.007029558 -0.53640807 -0.99889266 0.11581928 0.12854087 0.031773344 0.0037575471
chang 0.23986965 0.75184363 -0.26245832 0.036326773 -0.4567059 -0.9598224 -0.22701956 -0.3009987 -0.41141045 -0.5249564 -0.18904538 0.75385934 -0.94612277 -0.22418807 0.17956388 -0.7108132 -0.4562821 0.37524226 0.30849656 0.89951503 -0.028458953 0.42150277 0.0062694764 -0.39914632 -0.29902175 -0.24237306 -0.5895391 -0.59334314 0.7225271 0.5101271 -0.7492838 -0.36587313
system -0.20751457 0.64353484 -0.37372985 -0.021768235 -1.6324395 -2.796366 -0.4502182 -1.6380998 -0.119407624 -0.8828852 0.26585317 1.3900158 -1.2546166 -0.7902697 0.8935207 -0.4799461 -0.54477584 -0.061164517 1.7454494 2.199319 -1.1729115 0.47160915 0.82630575 -0.29385942 -0.3693717 0.26661822 0.1675602 0.33096722 -0.60056937 -0.552838 -1.4407672 -0.9525627
european -0.7901748 0.3538443 0.46780354 -0.21682349 -0.01112553 -0.15102342 0.6896018 0.4527435 0.05642862 -0.41568646 0.0081182495 -0.6666242 -0.6253875 0.39638096 0.36879957 -0.584859 -0.62472594 0.23541163 -0.2920171 -0.34914023 0.555671 1.1523104 -1.1333172 0.4990654 -0.191653 0.10152722 -0.5173934 0.76903254 1.5228211 0.83261603 -0.6021321 0.7359917
bank -0.5885622 0.16663569 0.62809503 -1.2530063 -0.27247643 -1.3771086 1.2090099 -0.6813419 -0.47221065 -1.3507417 1.3117979 -1.119257 -0.23685884 0.09726594 0.12830688 0.38050738 -0.9717353 -0.23407188 -0.11916056 0.16874473 0.12705006 1.9888544 -1.9440516 0.45464128 -1.9380633 -0.87423325 -0.86326647 2.277317 1.5765966 1.2329099 -0.8145131 0.8426369
issu 0.31422287 1.8676424 0.066172056 -0.41593307 -0.84098965 -1.0640888 -0.10322942 -0.3036204 -0.39535797 -0.8983558 -0.3383727 1.1018007 -0.9728486 -0.37843153 0.17933016 -1.0032914 -0.57964665 0.61131656 0.5595641 1.0531632 0.45628983 0.5574876 -0.14550558 -1.4296395 -0.5449083 -0.934874 -0.6927535 -0.97103494 1.1282557 0.62579465 -1.0676652 -0.024016505
british -0.8547424 0.17961648 0.9406624 -0.21014033 -0.44716644 0.77783334 0.32399178 1.0058826 -0.08595333 0.59648365 -0.40693116 -0.19004484 0.38426933 1.215917 -0.78506666 -1.0455682 0.61633396 0.36357704 0.22663872 0.88195235 0.24055424 0.88547474 -0.055186834 0.09503144 0.21062684 -0.39829063 -0.13144857 -2.172391 0.9812235 -0.15881205 -1.0281624 0.5135816
cost -1.0114801 -1.0887622 -0.21107385 0.6679829 -0.5595738 -1.811443 -0.18694139 -1.5091257 -0.09910071 -1.7060866 -0.2068991 0.56447476 -1.3687662 0.8170495 0.72585297 -0.45684743 0.30545968 -0.7607845 -0.20658857 0.63478386 -0.33106098 0.8819863 -1.0470982 0.100452974 -0.67483485 -0.9133874 -0.20430192 2.716146 0.21375503 -0.03329463 -0.62435704 -1.3703415
current -0.51898676 -0.5022097 0.13394831 -0.18472731 -0.80253357 -1.3354514 0.23929198 -0.6791163 0.11005907 -0.41169894 0.27712846 -0.061520945 -0.49510518 0.16300882 0.19553317 -0.30202717 0.175071 -0.1495123 0.35246846 0.7591276 -0.33802477 0.2689685 -0.25103006 0.2999486 -0.16242605 0.10114482 -0.12257138 0.79424024 -0.15411392 -0.075960755 -0.49625224 -0.23465379
five 0.57180935 -1.6967765 -0.45378998 -0.10893127 -0.07345892 0.124234654 0.26425385 0.27186438 1.365806 -0.85003346 -0.3233413 -1.0823029 0.13339564 1.6158464 -0.1520634 -0.44691402 1.1891791 0.49335125 -0.116895705 -0.12230565 0.6979949 -0.3817504 -1.766446 0.6984429 1.2991089 -0.54247385 -0.65547884 -0.7299788 -0.05181056 0.2065188 0.4324896 1.1964179
6 -0.2944677 -4.9570503 -0.67997223 -0.22681728 1.9263738 -1.2987475 -0.64561635 0.92033035 0.53060293 -1.6636412 -0.3228648 -2.244371 -1.620313 1.3582687 0.06484074 -0.36462244 0.758174 0.26077184 -0.5069035 -0.8636207 -2.1224093 1.9643432 -0.80599135 3.6964324 1.0734967 -0.2684303 2.2800875 2.069316 1.6305575 -0.48993227 -0.2844146 1.4934295
believ 0.7569029 0.70906943 -0.35540947 -0.24723826 0.18420345 -0.43595326 -0.2546969 0.26309124 -0.7135937 -0.57575816 -0.1876532 0.4269689 -0.8779701 -0.64453244 -0.07637149 -0.76501054 -0.5087491 0.75596315 -0.1570146 0.4980366 -0.0019370756 0.6094964 0.030717166 -0.15697768 -0.49515286 -0.21880502 -0.5014364 -0.62078595 1.0296102 0.86961013 -0.52827966 0.19473356
price -0.47533455 -2.3468144 0.15814088 -0.4056037 -0.04654807 -1.5512513 0.4201304 -1.6792604 -0.7804124 -1.9993166 0.47296736 -0.23657013 -1.9534105 0.8766087 0.6907692 -0.28841475 0.13793056 -1.184964 -1.0009961 0.44262722 0.19054809 0.62418824 -2.0610914 0.22371635 -1.2096733 -1.3475789 -0.6814611 3.5404868 1.1464131 0.3676539 -0.60200095 -0.66299164
follow -0.3862212 -0.14875942 0.4574389 -0.49860567 -0.19769292 0.08961806 0.69303423 0.30972946 0.4820294 -0.37935826 0.040874075 -0.85612214 0.23030569 0.8989889 0.15566798 -0.45789573 0.36795866 0.3606858 0.08390008 -0.51932317 0.5112313 0.41571456 -1.156325 0.53836817 0.49693865 -0.38228303 -0.091035664 -0.26547623 0.73306465 0.48825812 -0.58733046 1.2985088
place -0.13586937 -1.0629468 -0.40724543 0.72737575 0.39896315 0.43086177 -0.5964399 0.76797056 0.024749363 -0.20559497 -0.033414602 0.0052333204 -0.4401358 0.856693 0.15467219 -0.14789173 0.053533982 0.5723716 -0.2672996 0.327615 -0.25712663 0.4481788 -0.31490415 1.0022428 0.6468354 -0.07751682 -0.4999046 -0.5050672 0.31145868 0.7184582 -0.016708598 0.71154326
develop -1.4440448 -0.008005186 0.34800175 -0.441451 -1.3143163 -1.2427944 0.35769328 -0.99949974 0.33516508 -0.407355 0.08779162 0.36531276 -0.534387 -0.08844715 0.7453057 0.11028605 -0.5864473 -0.28317377 0.8931159 2.176701 -0.39195704 0.24356028 -0.37891102 -0.38530672 -0.33923084 0.4223456 -1.4693049 -0.04070439 0.044640694 -0.337177 -1.1007386 -0.43593726
face 0.09493019 0.39284766 -0.070286125 0.11652701 -0.09256353 -0.4097831 -0.1822585 0.29064465 0.008335909 -0.4146835 -0.05121175 -0.07673721 -0.69408834 0.11498074 0.733231 -0.6996762 -0.33607128 0.29138732 0.18609811 -0.41116795 0.14425549 0.5504002 -0.67639583 0.8929897 -0.016928703 0.21939293 -0.346116 0.09277066 0.8361823 1.0011612 -0.6842142 0.5511567
final 0.72930515 -2.3215082 -0.8948483 0.041058812 1.5439095 0.5613212 -0.31308818 1.5677749 0.3376802 -0.3224376 -0.14699642 -1.3911573 -1.0942445 0.5785362 0.0031379194 -0.28277168 -0.081883006 1.0361907 -0.86979693 -0.93911076 -0.22397241 0.37415203 -0.82517314 2.5425842 1.073378 0.505491 -0.05007144 -0.015458411 1.4729036 1.160843 -0.057327896 1.2083354
news 1.2573537 -0.67788225 0.18802392 -3.021171 -0.72054935 -1.4539689 1.5455358 -0.91061664 0.58879817 -0.8868246 1.0396254 -1.2656559 0.98777115 -0.16932294 -0.9316688 0.783042 0.09767763 0.35850704 0.67252636 1.0563747 -0.57851154 0.34275258 -1.2845119 -1.6584165 -0.44025722 -2.2221706 -0.31566632 -1.3108294 0.55225426 -0.6750076 0.018174758 2.1643574
industri -1.7430041 -0.9665109 0.8159244 -0.6531674 -0.9990641 -0.6649431 0.691781 -0.7996612 0.08399953 -0.64270717 -0.20330632 -0.03259396 -0.10876785 0.50514686 -0.2671418 0.055618018 0.3565079 -0.76600355 0.1515847 1.8164814 -0.0155043835 0.49223152 -0.74045724 -0.55853224 -0.58704406 -0.2754173 -1.1078348 0.38777873 0.37793276 -0.7514618 -0.5976127 -0.57769936
tori 0.98649913 2.9886112 -0.3792738 0.7056424 -0.37301987 -1.8336072 -1.060613 0.4512893 -0.45737252 -1.3733398 -1.6258798 1.4168248 -1.505383 0.10576068 -0.24911308 -2.2556305 -0.43221238 1.6899161 1.1130561 -0.5004011 0.19632465 1.8347927 0.4081442 -0.2665453 -0.22963177 -1.7761242 2.2120445 -0.96492416 1.9010868 0.41579622 -1.6421826 -0.071326576
secur -0.2537311 0.8167236 0.14808604 -0.71610236 -1.3192734 -2.0803711 0.4834257 -1.1979976 0.025104139 -0.89000356 0.9722476 0.56330574 -0.6072387 -0.24544871 1.3549001 -0.31066376 -0.34308004 -0.05872031 1.1644722 1.0841379 -0.40167543 0.6727717 -0.22073922 -0.309114 -0.4654011 -0.24744333 -0.3804477 0.80590236 -0.2991651 0.06982377 -1.2816342 0.21618661
howev -0.031796195 -0.30853167 -0.011744724 -0.6486582 -0.028741425 -0.5632539 0.54154426 -0.25122505 -0.37464154 -0.90388423 0.38932642 -0.10505499 -0.8333615 -0.047845867 -0.03073533 -0.23715536 -0.23930974 0.21028621 -0.68153554 0.39392912 0.3393039 0.53522307 -0.91071063 -0.33052638 -0.78379536 -0.6895418 -0.8572719 0.91209626 1.0649943 0.83852434 -0.39659727 0.025671488
deal -0.5773791 -0.4531979 0.08511933 -0.5407956 -0.08917984 -0.7630959 0.29303986 -0.14879188 0.01940044 -0.70655507 -0.019466534 0.038476106 -0.61833745 0.11484274 0.45974612 -0.26946008 -0.26650357 -0.080254376 -0.44554946 0.13155699 0.038233668 0.6077299 -0.8369326 0.044067487 -0.56006616 -0.51323974 -0.44197732 1.0582082 0.86339235 0.5515385 -0.65409607 0.07099946
busi -0.7433245 -0.47455236 0.12501031 -0.38930017 -0.68215084 -1.2579433 0.41070724 -0.9008752 -0.1464151 -0.7597012 0.27008379 0.36512017 -0.58789396 0.071113296 0.34097373 -0.12552464 -0.044108298 -0.43479282 0.11477048 1.0993086 -0.23834728 0.6777138 -0.6573079 -0.27592784 -0.72085744 -0.44607493 -0.83589804 0.9497117 0.2808753 0.07197689 -0.56423616 -0.49662203
manag 0.18214002 -0.13533856 0.042897973 -1.2200267 0.020729827 -0.3143607 0.24739026 0.65301496 -0.12184211 0.0012855638 0.5637249 -0.118549734 -0.284413 -0.59358734 0.20933925 -0.15649703 -0.3191207 0.68380994 0.0028963608 0.6511399 -0.43883115 0.45146874 0.0073212865 0.19142313 -0.43864384 0.1882766 -0.5885243 -0.4038124 0.55718386 0.51229966 -0.5605066 0.7315511
give 0.95778614 -0.002017774 -0.9382328 0.23288426 0.054241452 -0.8771178 -0.7402994 -0.25148255 -0.2499926 -0.39088705 -0.4267667 0.9899082 -1.0824513 -0.87473917 -0.16047227 -0.9136082 -0.13652238 0.32713625 0.23308049 1.0991021 -0.6712085 0.07753638 0.46225563 0.18807495 0.0102035 0.12130889 -0.40612087 -0.94302076 0.26454365 0.36554837 -0.33035254 -0.49588194
old 1.0053694 -1.8181424 -1.0843444 -1.2819045 0.33634588 -0.4135761 -0.5479276 0.8854452 2.33758 -0.36050263 -1.6494533 -1.2468271 -0.23274355 0.9935083 0.5083418 -0.8394741 1.2762355 0.3253703 0.7044515 -1.4529698 0.82216406 -1.1356632 -0.82979894 1.8229526 2.294132 0.21834378 1.53254 -0.53837454 0.42267543 -1.1961226 -0.30702424 0.5725417
director -1.1090779 -0.060773406 1.3802962 -1.4534898 -0.1891199 0.3135193 0.6849196 1.3916441 -0.47973657 0.8107101 0.102502115 -0.49663228 0.7102677 0.9347962 -0.42877364 -0.7865534 0.69758564 0.5421353 0.21880464 0.80674684 -0.38117772 1.4938134 0.46317452 -0.1487869 -0.35769543 -0.41607663 0.45106527 -1.8241826 0.9981974 -0.6551421 -1.4578793 0.86051273
four 0.31992465 -1.3858207 -0.41276082 0.12590334 -0.13256171 0.30009076 0.14512803 0.5041481 1.5216088 -0.5358786 -0.20943712 -1.0260758 -0.0918103 1.4670705 0.3638048 -0.38815582 0.8269741 0.6734475 0.056360565 -0.2129332 0.6553973 -0.3771664 -1.6380754 1.0410507 1.4569355 -0.20678966 -0.7157105 -0.7729675 -0.083941676 0.5341128 0.08980407 1.4502963
rate -0.056535117 -1.7823027 -0.56650627 -0.069022454 0.2901351 -1.2385352 0.26681355 -1.1753882 -0.62196755 -2.3064613 0.030957943 -0.42565686 -1.4572556 0.9023083 -0.6489256 -0.4660945 0.39524153 -0.68615746 -1.4319098 -0.06384439 0.05920108 1.160464 -1.9098735 0.32144532 -1.0704557 -1.6077535 -0.24956234 3.209682 1.3948319 0.35969275 -0.0808561 -0.75933844
offic -0.81631976 1.0386767 1.430886 -0.50426126 -0.8193529 -0.9369292 0.585223 -0.19856445 -0.51293874 -0.6715635 -0.39960858 -1.008373 0.6104056 1.1027075 0.7203737 -0.738285 0.88061744 0.3973264 0.8003252 0.18134598 0.49297407 1.6197704 -0.5121167 0.18114366 -0.30704138 0.20520972 0.6398799 0.2556109 0.4039655 0.13769095 -0.87706316 1.602149
2 -0.5060422 -4.0791593 -0.2413677 0.08123207 1.5137962 -1.2008455 0.15433657 0.09366425 -0.0062791044 -1.6559591 -0.016550384 -1.8761632 -1.1476625 1.1660404 -0.4298965 -0.041149322 0.80561924 -0.079454295 -1.1591916 -1.0802382 -1.7099956 1.5948075 -0.9984859 2.4509149 0.26530156 -0.7475451 2.0311313 3.12796 1.0551889 -0.42755178 0.36773297 0.8811519
state -1.2349566 0.86889774 0.7081565 -0.3325542 -0.24640918 -1.4418602 0.22811516 -0.5417734 -0.2677907 -0.7419407 0.06357358 0.19792646 -0.51597077 0.19756834 0.74144626 -0.52241135 -0.718864 -0.5322367 0.699934 -0.15891011 -0.114948645 1.5911857 -0.8019087 0.4922167 -1.1852746 -0.4517237 0.30221787 1.3706189 1.1561977 0.39054847 -1.385438 0.04704111
comput -0.44113228 -1.1055992 -0.52490395 0.10256223 -1.6129494 -2.6369596 -0.50054914 -1.8584129 0.6903383 -0.68270123 0.37744173 0.83691967 -1.0181867 -0.27855775 1.0373152 0.079105824 0.11915139 -0.18031618 2.053828 2.8208802 -1.7034079 -0.26504925 0.8818735 0.4811999 0.76080185 0.8156666 -0.334089 -0.47201103 -1.5497637 -1.1379762 -0.90269357 -0.6059818
unit -0.3709482 -0.27593377 0.2539399 -0.45437872 0.57082546 -0.6253845 0.55494964 0.59700286 -0.22220734 -0.1976866 0.39578214 -0.6885601 -0.2658685 -0.28344718 -0.056797523 -0.28215897 -0.7492279 0.29781798 -0.14182138 -0.78206956 -0.47372282 1.1559504 -0.7627551 1.8055485 -0.93685675 0.28172478 0.2312224 1.186922 1.2065941 1.0824623 -0.8429219 1.1796827
hit -1.3818917 -1.5019531 0.5460777 0.11993899 -0.0018104593 0.19904108 0.21493179 0.041375566 0.40788692 -0.27545556 -0.23914531 -0.49666873 -0.08499902 1.377538 0.19901654 -0.17543724 0.64574474 -0.33634657 0.03671499 0.28552508 -0.062103834 0.3549332 -0.87145257 0.79196984 0.4128584 -0.033283055 -0.35994914 0.14229913 0.5335007 -0.12397641 -0.61089224 0.17064852
net 0.5180587 -1.5498635 -0.63459975 -0.11108853 -0.9876813 -2.7903678 -0.2506268 -2.127005 0.5136343 -1.6205652 0.56231254 0.23828286 -0.94206685 -0.15234837 0.8683224 0.4315875 0.16605234 -0.20579052 1.500739 1.858456 -1.4740283 0.19028609 0.14457616 0.091139 0.24655233 -0.45296967 0.37151188 0.94520164 -1.1873605 -1.1169239 -0.019578297 -0.027597163
cut -0.1808122 0.4801116 -0.46949616 0.7943667 -0.36099795 -1.6022835 -0.37845582 -1.0270735 -0.3265436 -1.6847972 -0.8496384 0.8315024 -1.1093124 0.6147786 0.17876755 -1.1024717 0.1595744 -0.27581823 -0.019806266 -0.30784482 -0.049577005 1.294379 -1.0364978 0.08736017 -0.7983423 -1.5609896 0.80808485 2.10911 0.9579936 0.17631274 -0.6255402 -1.1052549
user 0.263746 -1.7942852 -0.89440244 -0.17233072 -1.5304246 -2.9265351 -0.34967285 -2.088807 0.59368604 -1.2277769 0.67025864 0.719412 -1.0680534 -0.40022835 0.63503015 0.2575555 0.33129728 -0.21001215 1.7057219 2.951526 -1.7438447 -0.20164718 0.61164385 0.09185242 0.6385377 0.107380174 -0.3694308 -0.06254995 -1.6348239 -1.1634004 -0.3851657 -0.44674343
law -0.32925627 2.5015204 0.6552298 -0.6413271 -1.0702655 -2.1695814 -0.28776905 -0.35943243 -0.704753 -0.14699113 0.23552682 0.9642413 -0.8243852 -0.19091715 1.049675 -1.4906225 -0.5907337 -0.12834689 1.6145985 0.4193591 -0.03674409 1.062037 0.542648 0.080535 -0.7564404 0.33473554 0.42628998 -0.64103425 0.8154758 0.5367181 -2.1588824 0.051137254
six 1.2972882 -1.3510139 -1.4546121 0.6504535 0.3321709 0.65467995 -0.19823799 0.5941241 1.4198867 -1.5205988 -0.46395838 -1.398975 -1.0960097 0.9471261 0.55047935 -0.62378734 -0.025596714 0.9362521 -0.53136873 -0.019493738 1.1587051 -0.07686629 -2.269683 2.40113 1.1267259 0.5249752 -1.7927561 0.23094526 0.27927214 1.643627 0.15886292 1.7450893
support -0.4590718 0.7625663 0.27698895 -0.0053643975 -0.26196158 -0.36244148 -0.2501666 0.27083412 -0.3969209 0.1044728 -0.5253525 0.77215207 -0.48899356 0.11248624 -0.20939608 -1.2457697 -0.030363634 0.11960686 0.32118875 0.36648902 -0.27839386 0.8087765 0.09986031 0.06591181 -0.12397253 -0.26240495 0.3899758 -0.6639484 1.0806285 -0.004301387 -1.2820482 -0.33161604
rule -0.310287 1.6714116 0.6028479 -0.5311443 -0.6458418 -1.1310071 0.050575223 0.06798963 -0.51740086 -0.15005226 0.19472134 0.38597596 -0.72320014 0.10685578 0.8067355 -1.187149 -0.56081 0.0098400805 0.6573224 -0.14448623 0.26233354 0.93905854 -0.33556625 0.09056164 -0.6706047 0.0669929 -0.09550191 -0.20930782 1.1967837 0.91549367 -1.5522813 0.37630793
economi -0.38762358 -0.5998002 -8.6032895e-05 0.0010113111 0.27149215 -1.0853071 0.31983757 -0.9148661 -0.80186135 -2.2181067 -0.18480611 -0.3885625 -1.6272848 0.37476185 -0.1809397 -0.10699682 -0.33967513 -0.018217359 -1.1274251 0.248758 0.4514262 1.3813486 -1.5859313 -0.39585844 -1.2747412 -1.4498274 -0.34906486 2.6465518 1.950076 0.7859317 0.07367541 -0.45171696
brown 0.67036825 2.2076254 0.2517119 -0.002447996 0.64645773 0.04288956 -0.30471075 0.4804686 -1.0561249 -1.2300199 -1.3460035 -0.19951782 -0.904941 0.5972507 -0.5289226 -1.5102232 -0.5490987 1.4831941 0.052029062 -0.7019027 1.0258198 1.4776587 -0.6056242 -0.39929384 -0.3709698 -1.5227727 1.44883 -0.96746457 3.0828464 0.8216691 -1.0406036 0.7688237
product -1.7247534 -1.6942245 0.5745102 -0.39246845 -0.75551313 -0.70611155 0.46033257 -0.7082927 0.18363716 -0.39548695 0.18891747 0.13883115 -0.37949446 0.8800935 0.1309479 0.094692014 0.364242 -0.89660704 -0.05557655 1.4447321 -0.5516187 0.4983463 -0.7032668 -0.21904878 -0.4221622 -0.48086488 -0.89117926 0.81135887 0.18511836 -0.6201302 -0.8547468 -0.7437213
point 0.73742574 -0.868153 -0.73081964 0.62430084 0.5504808 -0.36114463 -0.58504546 0.06256523 -0.06394833 -0.8096892 0.031937186 -0.05180954 -1.2100422 0.06478531 0.24026479 -0.047552284 -0.16877192 0.44063127 -0.36081925 -0.001167238 -0.2613412 0.22434422 -0.4335207 0.75718516 0.1390254 -0.24821433 -0.2591413 0.37224957 0.49062958 0.8436702 0.11129696 0.2524658
chief -0.51674837 1.6776055 1.9464653 -3.2189543 -0.6486065 -1.2386048 1.576866 0.4745402 -0.28795847 -0.7787564 1.4086685 -1.6073011 0.8815416 0.44814175 1.7153145 -0.37577552 0.6862655 1.6073042 0.8854968 -0.12799618 0.41919446 2.5637028 -0.7980943 -0.9075958 -1.1640531 -0.7283947 0.51668876 0.31056944 0.6080068 0.8822455 -1.4901733 2.7353218
continu -0.16935858 -0.33858818 0.0060414583 -0.4102292 -0.11866308 -0.8106371 0.1969811 -0.5722107 -0.59975255 -1.0413076 -0.050275594 0.22986552 -0.899819 -0.15435015 0.03352263 -0.25604117 -0.16036355 -0.07930771 -0.43611133 0.65570873 -0.019465104 0.67672724 -0.648129 -0.48307815 -0.76917714 -0.6635018 -0.51405454 0.9167011 0.9806337 0.37642524 -0.36704516 -0.23940815
interest 0.33408755 -0.3314201 -0.47178406 -0.33069474 0.15530418 -0.4500684 -0.12040784 -0.44005436 -0.7365242 -0.863082 0.036924277 0.65592307 -0.97773814 -0.17666188 -0.85458505 -0.62231725 -0.006491818 -0.2766915 -0.650025 0.826144 -0.15452698 0.76956344 -0.4844053 -0.31800336 -0.8385444 -0.9252035 -0.40285423 0.52631927 1.1136464 0.26946786 -0.52368706 -0.643211
half 1.6921226 -2.8059013 -1.3538251 0.23779567 1.4949032 -0.21062681 -1.2660888 0.07132504 0.48482767 -1.1740642 -0.11712623 -1.2569104 -1.1706655 0.41885322 0.88361853 0.19147524 0.28754827 0.4383365 -0.040892426 -0.46393058 -0.75368816 -0.36363542 -0.5284436 2.5329955 1.0223835 0.3148727 0.37483102 0.12429429 0.27558348 0.21458249 0.6562783 1.0142257
alreadi -0.48715338 -0.19695325 0.1146452 -0.15806986 -0.78258294 -0.6503351 0.12685585 -0.20762521 0.44658753 -0.37574515 -0.071945064 0.02043135 -0.1868564 0.43705234 0.052339517 -0.26991436 0.16754 0.04561575 0.5326988 0.7912011 -0.0665248 0.28992727 -0.374552 0.11774953 0.15749043 -0.25919598 -0.16174607 -0.17416367 0.0701735 -0.16436225 -0.5369875 0.029614229
base -0.82327265 -0.9899427 0.29738033 -1.173916 -0.42392543 -1.6149247 -0.102895804 -0.62493116 0.51164955 -0.17389813 0.1787382 -0.14763717 0.1361083 0.13541672 0.90053713 0.39082178 0.087851875 -0.69992226 1.6040703 0.94665277 -1.2592007 0.80614597 0.21125029 0.21227747 0.095577024 -0.035863385 0.8084147 0.17685083 -0.276752 -1.5607297 -0.9714746 0.16876842
recent -0.62684673 -0.44056964 0.32486904 -0.76969475 -0.82994056 -0.2048002 1.0619618 -0.10476533 0.56056327 -0.71846586 -0.18937936 -0.5269424 -0.3546501 0.6758805 -0.4830703 -0.7342058 0.50244266 0.05545316 -0.49778238 0.15086468 0.93780893 -0.19945048 -1.4736571 -0.10109153 0.42388058 -0.53635573 -0.68099844 0.42760137 0.80153537 0.24738148 -0.53508776 0.14880694
london -1.211182 -0.21288414 1.251955 -0.62622416 -0.23294035 0.07610318 0.81478894 0.72628576 0.23438258 0.024594545 -0.018638985 -0.9938812 0.33560732 1.311042 -0.27644545 -0.33957538 0.18756635 0.15135843 0.047017857 -0.5081564 0.26878846 1.0059127 -0.93893963 0.75596017 0.0682789 -0.62364274 0.52660644 -0.21111955 1.1577548 0.13727173 -1.0131013 0.99890006
intern -0.5461533 0.25811413 0.5885295 -0.5844612 -0.07883511 0.27758688 0.53623426 0.7278842 -0.14165752 0.34334937 0.1729097 -0.60234016 -0.049363315 0.18270648 -0.0359727 -0.63659066 -0.31618673 0.3215549 -0.03981038 -0.04206663 0.25821692 0.8374687 -0.6360811 0.9189834 -0.2797561 0.29693648 -0.52939546 -0.355414 1.3771163 0.7735787 -1.0280335 0.81732786
team 1.0302103 -0.9433956 -1.036482 -0.04326233 1.0826275 0.7709955 -0.8308558 1.681868 0.16294326 0.006787124 -0.107307784 -0.34697044 -0.948512 -0.24860767 0.3068732 -0.3243889 -0.7323773 1.2312108 -0.08718366 0.49845847 -0.030379834 0.196535 -0.018505419 1.7744441 0.48791993 0.89952415 -0.9938351 -1.3454376 1.0317359 1.2222713 -0.26709452 0.977695
problem 0.55716103 0.39372474 -0.47862452 -0.06875182 -0.42727786 -1.0502111 -0.2950471 -0.6198684 -0.34914717 -0.82959986 0.0064463792 0.5555532 -0.93157566 -0.54085094 0.17606744 -0.3613728 -0.43045476 0.47991475 0.35766056 1.2964481 -0.112390555 0.20519087 0.0517095 -0.29831415 -0.2807025 -0.13714567 -0.8504749 -0.43207586 0.28760612 0.4934916 -0.2814177 -0.17606553
growth -0.43726468 -2.312472 -0.09294105 -0.38337016 0.038985178 -1.2047683 0.7003051 -1.4537977 -0.66765267 -2.650291 0.20970042 -0.7225869 -1.8741142 0.43618876 -0.20523736 0.17115283 0.07909516 -0.42055538 -1.5762196 0.7417421 0.0254632 1.0637827 -2.0211573 -0.4320228 -1.0204779 -1.5779437 -1.026418 3.157908 1.6500322 0.59812325 0.37564418 -0.33306178
former -0.07511078 0.8233185 1.0864304 -1.012975 0.07448725 0.08578276 0.45819885 1.3752148 -0.23057628 0.272133 0.10053689 -1.1102893 0.42624906 0.32578498 0.11703382 -0.9120187 -0.06284622 1.0544155 0.5082044 -0.77716845 0.09078126 1.3140932 -0.36449277 1.1118196 -0.10151486 0.16792487 0.8014333 -0.90853786 1.5627179 0.73280835 -1.0389487 2.0949445
meet -0.53160274 0.61310947 0.6946641 -0.4073477 0.32756382 0.07984334 0.51328605 0.49399725 -0.36935636 -0.8955615 -0.33223552 -0.98834324 -0.27573165 0.70130664 0.20340253 -0.681829 -0.108551234 0.5882522 -0.40997222 -0.8492548 0.8315979 1.1057427 -1.2834517 0.39321697 -0.2848924 -0.520289 0.012673653 0.40466246 1.9498914 1.1144882 -0.69099075 1.107447
oper -0.7254842 -0.59727955 0.17092781 -0.49268842 -1.1908766 -2.002794 0.3472321 -1.1300424 0.289084 -0.98295367 0.48794705 -0.117583394 -0.637336 0.080081925 1.0673326 0.33857492 -0.04739263 -0.18267058 0.89902884 1.0003723 -0.7798236 0.67622215 -0.5425085 -0.1517403 -0.3504073 -0.24674715 0.16615558 1.6107017 -0.4747001 -0.35097334 -0.76828825 0.18563385
rise -0.5730848 -1.5069433 -0.28315082 0.14340782 0.019603169 -1.1841989 0.3576858 -1.1921952 -0.61937416 -2.1259673 -0.32229614 -0.054698803 -1.4941107 0.9419053 -0.34369925 -0.79630405 0.5354665 -0.63443166 -1.1550349 0.012273955 0.017076582 1.1248462 -1.8777009 0.14661984 -0.8225681 -1.5269748 -0.1166488 2.9914436 1.3695278 0.28594223 -0.3405336 -0.8098166
becom -0.43315732 -0.7443167 -0.16587436 0.058721203 -0.55393517 -0.3047196 -0.2735052 -0.31994098 0.23070562 -0.40910265 -0.2857539 0.3245788 -0.5569914 0.16256365 0.37210134 -0.104575954 0.20062578 -0.031509835 0.5184232 1.5924 -0.3523202 -0.05971367 -0.14485095 -0.30782357 0.32058156 0.19836587 -0.6987462 -0.6975462 -0.054523498 -0.33722642 -0.32249314 -0.14297733
britain 0.273267 0.57287 -0.09666199 0.33585092 0.24857157 0.3061506 -0.25898242 0.83646137 -0.33899137 -0.0028892055 -0.73508406 0.11340908 -0.40667787 0.307408 -0.48714286 -0.9412781 -0.12991796 0.81262517 0.13152312 0.15561189 0.17385529 0.8306139 -0.061282523 0.34233668 0.16657327 -0.37753844 0.16173239 -1.2422986 1.1898288 0.44933292 -0.34791303 0.37294692
job 0.29666775 0.092886575 -0.29184115 0.25203452 -0.27773908 -0.9082198 -0.2157784 -0.86035913 -0.35322472 -1.7095857 -0.21375744 0.40223476 -0.61718357 0.5515699 -0.1831499 -0.4934902 0.28891698 0.38909352 -0.438462 0.91730654 0.52831376 0.78122205 -1.0324886 -0.46865135 -0.83185965 -1.2781243 -1.1667435 0.41007993 0.32594466 0.75686055 0.38616306 -0.23279025
campaign 0.2029606 1.8885386 -0.24785028 0.20684657 -0.35440907 -0.65616304 -0.54871804 0.6725817 0.5377825 -0.8038565 -1.1265222 0.8580054 -0.93673897 0.45877588 -0.24032798 -1.3183208 -0.059780195 1.3043087 0.65433985 -0.40971684 0.24986658 0.70076215 0.19207904 -0.542806 0.9291016 -1.2255896 1.619814 -0.938476 1.1612108 -0.06135648 -1.0734262 0.10287484
long 1.010495 -0.9125083 -0.8231159 -0.23728815 0.54697156 -0.44649738 -0.94825363 -0.0003291711 0.35513952 -0.57321995 -0.4976129 0.2576636 -1.1136994 0.12338663 0.68937576 -0.31575572 -0.18276334 0.16905876 -0.10416724 -0.26494327 -0.11474197 -0.22334446 -0.24024275 0.32827017 0.47744188 -0.4050536 0.20125903 -0.015931714 0.7975824 0.13833502 -0.29030502 -0.27156487
allow 0.28472346 0.65436846 -0.46910363 0.051969353 -0.83142227 -1.7388548 -0.4073188 -1.0839224 -0.22908778 -0.9021182 -0.14344609 0.9579672 -0.9512581 -0.6579702 0.3596974 -0.72488385 -0.25598726 -0.1164822 0.85095316 1.1658179 -0.5579601 0.21876524 0.10974784 -0.14637734 -0.26549697 -0.0074719875 -0.29122943 0.077178754 -0.03235956 0.056615744 -0.64809054 -0.5972449
perform -0.8507302 -1.6488358 0.5553995 -0.027731309 0.32068396 1.1692622 -0.040147085 0.95299053 -0.07223468 0.57407206 -0.28628054 -0.2495589 -0.07691321 1.1365075 -0.6832369 -0.73936707 0.8094376 0.10332837 -0.39444777 0.7153926 -0.15503056 0.36948165 -0.115303785 0.7705319 0.5072887 0.029917412 -0.47956485 -1.4236914 0.8812699 -0.16016532 -0.6294257 0.13039552
know 1.921406 -0.22152692 -1.2612395 -0.26947847 0.23753887 -0.2682146 -0.9556422 0.45005283 -0.13934585 -0.3048113 -0.4363648 0.971442 -1.1286162 -0.85750127 -0.54371893 -0.82728827 -0.017032214 1.3509976 0.13200335 1.8379501 -0.34744528 -0.33257985 0.79980195 -0.39401302 0.35823444 -0.13572468 -1.0784745 -2.7210183 0.3975674 0.567335 -0.09216557 -0.042562988
2005 -0.8966468 -2.3720577 -0.024450459 -0.03199406 0.017494509 -0.10585299 0.39474863 -0.2526913 0.2283775 -1.4676449 -0.090585686 -0.74365616 -0.9473396 1.096476 0.043741908 0.17688113 0.50692415 0.013401205 -1.087311 0.67862755 0.3307078 0.22761191 -1.4457074 0.070474826 0.121485285 -0.672185 -1.1949888 1.370118 0.6398917 0.34593967 0.30230755 -0.12265533
digit -0.84811455 -3.2007227 -0.08087986 -1.0457945 -1.2464018 -1.3623434 0.13017549 -1.0613121 1.0550661 -0.5570739 -0.0006071896 -0.3682886 -0.23323727 0.01868757 -0.34246436 1.0409143 0.63875365 -0.38139385 1.2147987 3.5898166 -1.6331716 -0.37192154 0.1020599 -0.33365986 0.54894596 0.07310429 -1.0657067 -1.195987 -0.89756596 -1.7907289 0.02349074 0.020869156
money 0.43145785 0.2328974 -0.5723365 -0.07223912 -0.2162867 -1.5916588 -0.39602807 -0.87841964 -0.57881063 -0.8645794 -0.20501208 0.9794147 -0.8655868 -0.5833156 -0.3877952 -0.8314974 -0.10541613 -0.12495104 0.0697172 0.98037934 -0.59544617 0.65809566 0.11674825 -0.3310286 -0.9455836 -0.73220897 -0.12044399 0.44031543 0.45385912 0.17809522 -0.5004241 -1.0431674
releas -2.0093348 -1.7308371 0.64913684 0.000538267 -1.0368421 -0.009597835 0.49569154 -0.09374164 1.3691131 -0.43616736 0.058549047 -0.6062616 0.01939615 1.8272512 0.7169911 0.046311505 1.0767696 -0.054313343 0.34135073 1.028347 0.08376257 -0.326982 -0.9362784 0.47414184 1.4282166 0.26728025 -0.9722985 -0.23988687 -0.56065625 -0.41144973 -0.61850244 0.39990893
decis 0.84541005 0.9573909 -0.07859375 -0.8436877 0.1351239 -0.46615958 0.097433105 0.5582225 -0.7095765 -0.31034935 0.2400292 0.108674936 -0.6576367 -0.31910717 -0.116110325 -1.0402052 -0.49479234 0.8257632 -0.15642741 -0.13858159 0.27662283 0.6809185 -0.20212163 0.0648945 -0.63460916 -0.341505 -0.34234962 -0.6282018 1.4189247 1.2379745 -0.96598196 0.5873936
econom -0.18513498 0.37882861 0.35852262 -0.34153894 -0.16861722 -1.3229645 0.6626899 -1.1256225 -0.8396759 -1.9941173 -0.026147276 -0.41633916 -1.2770294 0.15367916 -0.16998498 -0.2041314 -0.38883728 -0.07093432 -0.7093956 0.15669915 0.50301147 1.3839574 -1.6083196 -0.72333825 -1.4402896 -1.5445437 -0.2737589 2.1774452 1.9368987 0.8072981 -0.18451557 -0.14753067
figur -0.76241684 -0.81651926 0.5841456 -0.44216815 -0.48008367 -0.5117823 0.7881476 -0.9152506 -0.1707708 -2.0433812 -0.06289645 -0.60522884 -0.286239 1.3333617 -0.36635146 -0.10615612 0.69125885 -0.14679816 -0.63987374 0.6341472 0.47692588 0.94622916 -1.7594578 -0.95195633 -0.44671658 -1.6117947 -0.73332417 1.287737 0.6278231 0.11563573 0.23483416 0.32468513
thing 1.6469005 -0.563343 -1.2997739 -0.18870676 0.21608007 -0.14208166 -1.1050904 0.4447231 -0.07240266 -0.42494285 -0.36534297 1.0681874 -1.3473501 -0.541608 -0.06138841 -0.6425109 -0.14344452 1.2037272 0.03732813 1.8795531 -0.15444708 -0.4263278 0.58585024 -0.56353694 0.34677452 -0.18830426 -1.3799232 -2.4134662 0.3362542 0.6555298 -0.10072563 -0.10637675
accord -0.6666196 -1.1199667 0.7919884 -1.2664121 -0.9485683 -1.0665786 1.3501322 -1.4061985 0.17145339 -1.4505252 0.41825983 -1.1899003 0.36833268 0.61312455 0.12303336 0.40976173 0.55643886 -0.3150704 0.23589998 0.76545715 -0.20234439 0.5970019 -1.5631529 -0.7239217 -0.31097 -1.055716 -0.40200734 0.8735551 0.21339019 -0.44722325 0.12102009 1.2507815
third 0.051769733 -1.5950131 -0.55960745 0.5029973 0.39166462 -0.027560554 -0.2704818 0.5965037 0.71929586 -0.6273353 -0.44948047 -0.7856276 -0.81136084 0.83880883 0.1434571 -0.22245093 0.32822615 0.48563442 -0.46446708 -0.4890129 -0.16766863 0.1700417 -0.93423194 1.2997375 1.1238508 -0.057538345 0.2862009 0.3580192 0.42320704 0.38729882 0.2458622 0.552045
lead 0.032639667 -1.1442488 -0.29656234 0.14495152 0.45594412 -0.04677586 -0.13200322 0.4219527 0.16598985 -0.06407671 -0.08565233 -0.47576398 -0.5029625 0.12191253 -0.08084019 -0.31308755 -0.014364418 0.21252796 -0.1358535 0.021055628 -0.5607604 0.3830841 -0.26327673 1.3837544 0.3604307 0.31600985 0.107707374 -0.14673792 0.5870462 0.2849717 -0.26130122 0.44432646
club 1.32806 -0.56669325 -0.6534658 -0.9675327 0.95442456 0.49217123 0.04202594 1.2721826 -0.015134137 -0.13508558 0.23542796 -0.4707871 -0.6744783 -0.6072675 -0.40187204 -0.3496658 -0.6595526 1.2331111 -0.76293504 0.08679136 0.22417296 0.35406372 -0.54761696 0.82804173 -0.457858 -0.100073256 -1.0511395 -0.70350003 1.6140513 1.499556 -0.27200958 1.1297513
live 0.80506516 -0.5554747 -0.47887072 -0.022131363 -0.045169022 -0.34675118 -0.5155555 -0.16997266 0.19673134 -0.28782496 -0.43427947 0.29984772 -0.09842021 0.14520064 -0.6020045 -0.34858775 0.3625528 0.3561043 0.5241324 1.3651195 -0.6144134 0.054022316 0.22160813 -0.08178473 0.38117716 -0.43319097 -0.4646015 -2.149408 -0.09542554 -0.33155403 0.111233026 0.17300694
power 0.26766357 0.24015948 -0.5390865 0.3874866 -0.47120795 -1.4260284 -0.6365319 -0.7123458 -0.06718158 -0.75755894 -0.15254593 0.7964644 -1.2158031 -0.27680093 0.6105539 -0.5602803 -0.37802136 0.16441132 0.6337856 0.8681338 -0.49370375 0.1320185 0.21830076 0.12375962 0.011694073 0.13517275 -0.118646 0.25747484 0.051868986 0.3060131 -0.6203053 -0.538709
3 -0.74435896 -4.4654117 -0.36999285 0.082702115 1.5295898 -1.0104654 -0.067323014 0.36616638 0.18820447 -1.662619 -0.061561197 -1.9020398 -1.3919879 1.2278827 -0.08117109 -0.00718797 0.7267453 -0.13071136 -1.219434 -0.8675692 -1.6412529 1.5794684 -1.1872115 2.6676958 0.5021307 -0.46007365 1.5549997 3.1027207 1.1922507 -0.23821415 0.16820249 0.87271655
announc -1.0287586 0.5979184 0.6499851 -0.29923236 -0.600468 -0.20002301 0.51480055 0.06226124 0.39421773 -0.999621 -0.41395447 -0.2383632 -0.14200187 1.3245833 0.48420218 -0.6805222 0.30049688 0.31822667 -0.04934697 -0.4425515 0.7496093 0.7786104 -1.3875148 -0.38381597 0.23039006 -1.0736209 -0.1912839 0.30224878 1.0058112 0.48040387 -0.9247543 0.5834395
consum -0.08950304 -1.9025444 -0.4434942 -0.89688146 -0.7030042 -1.8471671 0.20680922 -1.6281044 -0.18937667 -1.5589776 0.5206399 0.2069964 -1.2177924 -0.2052385 0.046639387 0.5335695 0.053948086 -0.4200171 -0.04682878 2.2250462 -0.9492073 0.27144623 -0.54082566 -1.1501696 -0.91451037 -0.95961916 -1.0460585 1.3986179 -0.010720774 -0.52212393 -0.07709197 -0.8439555
network -0.2069829 -1.0475833 -0.15434848 -0.52258587 -1.5882263 -2.7066681 -0.105959184 -1.7329377 0.82128215 -0.93726814 0.3431069 0.3291284 -0.726186 -0.18257423 1.0674247 0.45694855 0.129696 -0.16927001 1.7671446 1.9666469 -1.4344987 -0.007538893 0.35026488 -0.33688843 0.41256055 -0.02743257 0.43839315 0.28672066 -1.1915988 -1.2003245 -0.69196993 0.0156195145
big 0.07434985 -0.88496196 -0.54747105 -0.007940676 0.024007905 0.32160753 -0.3092287 0.546606 0.49948055 -0.22937737 -0.30886784 0.3277186 -0.6333098 0.4099492 -0.19040745 -0.27499267 0.10601386 0.48327032 -0.19033244 0.9789857 0.03711426 -0.20951857 -0.30680162 -0.20673671 0.52430356 -0.23253253 -1.0777913 -1.1627394 0.47354242 0.1792801 -0.24077308 -0.13449226
side 1.4183277 -1.0492258 -1.1437494 0.2714783 1.4979407 0.57529056 -0.98590434 1.5820549 -0.039682202 -0.45890406 -0.19508478 -0.71915877 -1.1996773 -0.14600153 0.09282606 -0.5617161 -0.54939294 1.262573 -0.46485344 -0.35175705 -0.045918237 0.33200964 -0.26703584 2.310633 0.49697754 0.61824584 -0.30459923 -0.6283894 1.4080398 1.5452553 -0.06991798 1.1763362
spend 0.2871827 0.09527117 -0.6883121 0.51209134 -0.3466042 -1.4967974 -0.26699278 -1.2714018 -0.25768557 -2.080346 -0.71814066 0.53887796 -1.3999301 0.34285477 -0.30156308 -0.9598636 0.3516495 -0.19894382 -0.5550436 0.06277801 -0.040274877 0.8501722 -1.0673043 -0.49935898 -0.59809726 -1.6881474 0.33563983 1.9214408 0.91814274 0.22050187 -0.121443 -1.0619941
mean 0.35083738 -0.6642321 -0.7146357 0.23856454 -0.55323 -1.3169159 -0.60888207 -0.92955714 -0.20520489 -0.72991604 -0.20703061 0.9347868 -1.1367754 -0.61377025 0.24308777 -0.43876222 0.00798638 -0.052603923 0.37441742 1.5753641 -0.92621565 -0.102515176 0.3217808 -0.1426855 -0.05400063 0.08222371 -0.6373527 -0.13195239 -0.3111427 -0.14095537 -0.37364998 -0.7878918
control -0.058673993 -0.092333816 -0.46351692 -0.023066359 -0.73035705 -1.6991438 -0.43311617 -0.8723734 -0.049438223 -0.4007227 0.1514372 0.9113457 -1.0595372 -0.84746665 0.59540844 -0.38136807 -0.48849055 -0.114575066 0.8514676 1.4406872 -0.8874808 0.09579788 0.23145787 0.37115455 -0.15200718 0.52287227 -0.4612832 0.101830095 -0.106625624 0.17396237 -0.91195196 -0.46092477
europ -0.6514336 -1.1227957 0.0063044694 -0.23071422 -0.48810068 -0.7067221 0.4496363 -0.8029377 0.22834107 -0.99858344 0.17376968 -0.28850314 -0.6774331 0.23513049 0.18981129 0.34675536 -0.19463895 -0.13864923 -0.028248848 1.0997669 -0.024902968 0.3400271 -0.94401246 -0.20326902 -0.24675205 -0.36763877 -0.93552285 0.8794386 0.21049555 0.042679727 -0.040466253 -0.042760257
court -0.17572364 1.3828305 0.69849443 -0.8754484 -0.46821418 -1.22454 0.27349785 0.13017872 -0.27132368 0.2849466 0.8497381 0.10883561 -0.23369785 0.27444974 0.6107494 -0.84869486 -0.3762068 -0.024717763 0.99299407 -0.34925875 -0.004253916 0.79358643 -0.45739606 0.30660316 -0.642611 0.05598595 -0.13511492 -0.46507642 0.8494255 0.829472 -1.6220127 0.7427048
match 1.3859545 -1.9241726 -1.3346013 0.45078114 1.538755 0.7733367 -0.88973457 1.4545264 0.29786682 -0.5795314 -0.08246251 -0.8616156 -1.3871914 0.18503524 0.35792023 -0.32620072 -0.39176017 1.4014438 -0.7092252 -0.32409477 -0.16135944 0.17404029 -0.6955777 2.2153482 0.7873705 0.4845262 -0.78508586 -0.52061766 1.2671611 1.6445004 0.11134158 1.3783368
analyst -0.53435653 -1.3537537 0.24284948 -1.2859877 -0.20143583 -1.3577288 0.85148066 -0.92208683 -0.53914106 -1.898003 0.6863611 -0.64007396 -0.7753291 0.39723656 0.011735168 0.44050428 0.065354005 -0.04104301 -0.64184153 1.1410302 0.18699896 1.078891 -1.3144028 -0.9107634 -1.3574846 -1.4949344 -0.75242233 2.1965349 0.7517355 0.17414315 -0.07617365 0.049234178
vote -0.049439274 1.2433728 0.10837967 0.6741807 -0.16426826 -0.045356583 -0.66654843 0.62674326 -0.06819994 -0.4088032 -1.2050197 1.0738424 -0.49699742 1.0792199 -0.6337756 -1.6557487 0.5002001 0.57867783 0.23681326 -0.070444606 0.11416078 1.1052142 0.10096059 -0.72066516 0.46735185 -1.4433728 1.0350933 -1.4453274 0.88407856 -0.15090413 -0.8079993 -0.221743
person 0.499746 -0.41900268 -0.24832414 -0.11432233 -0.3524854 -0.6230024 -0.5534506 -0.3093434 -0.09954998 -0.079451315 -0.19811292 0.562174 -0.5723976 -0.22003631 -0.18988964 -0.35988602 0.07385441 0.29748437 0.67743397 1.318528 -0.96190697 0.058222268 0.78300446 -0.16942675 0.26081032 -0.18572539 0.41384798 -1.1783843 0.03952696 -0.64045227 -0.45810348 -0.18134582
lord 0.7643927 2.9947743 1.1047703 -1.061651 -0.5292184 -1.3863513 -0.1425183 0.2565965 -1.3449886 -0.33001336 -0.20189515 0.2801267 -0.78725046 0.2639426 0.45651993 -2.0166616 -0.329012 1.005841 1.1386185 -0.14634167 0.6681626 1.182081 0.03943247 -0.566873 -0.77366996 -0.52915615 0.87158144 -1.956332 2.0408623 0.9360326 -1.8181094 1.3324852
around -0.045941055 -1.2383835 -0.468017 0.35659972 -0.35387272 -0.7738494 -0.0053576073 -0.4018418 0.53384817 -0.37652332 0.025836185 -0.18343382 -0.4093849 0.14446792 -0.2735572 0.2179161 0.0855517 0.18966252 0.36772227 1.5095738 -0.5526156 0.15011474 -0.16329893 0.51296324 0.31564203 0.19089307 -0.8122866 -0.7152319 -0.45780832 -0.18120004 0.32907182 -0.09761205
inform 0.15600733 0.47501838 0.059897553 -0.96612823 -1.6227686 -2.192727 -0.0035735806 -1.4147102 -0.0992205 -0.6082049 0.49262598 1.0390489 -0.45351708 -0.67116255 0.2820619 -0.45462874 0.014959234 0.0021111497 1.5414304 2.3264441 -1.0986971 0.33413935 0.6154517 -1.0374136 -0.27723122 -0.32536077 -0.3441423 -1.0343925 -0.47604606 -0.6559643 -1.0923119 -0.20406397
great 1.0512465 -1.1454546 -0.80325556 -0.14047693 0.48048317 0.65725297 -0.60092366 1.3732133 0.07523876 0.12711938 -0.4683255 0.07346799 -0.8390687 -0.13573234 -0.6730004 -0.774762 0.16532551 1.2494771 -0.5663233 1.1675875 0.026348712 -0.331077 0.4169068 0.6845867 0.65235806 0.37498227 -1.0308998 -2.223745 0.73429525 0.6700101 -0.1132324 0.28071564
general -0.58096683 1.9373896 0.2167714 -0.07442801 -0.38402408 -0.13066462 -0.18693547 0.94200623 0.370335 -1.3332633 -1.12997 0.9615011 -0.9625273 1.288762 -0.04277873 -1.6270919 0.12209222 1.18737 -0.17459129 -0.52922034 0.8767375 1.1330434 -0.82378674 -1.4804038 0.32184717 -2.0190516 0.5871083 -0.09711883 1.8256572 0.4401731 -1.117535 0.023551691
up 0.3114612 -1.3911563 -0.95503116 0.19994864 0.68914866 -0.47941443 -1.4402156 0.36725137 0.83141863 -0.40010744 -0.6683035 0.15507443 -0.89433545 0.33472392 1.1013064 -0.008881513 -0.05134932 0.05240241 1.0346975 -0.05643072 -0.8172688 -0.040855147 0.459633 1.288979 1.2481285 0.30301353 1.0663648 -0.17085718 0.065462746 -0.7008637 -0.48462728 -0.092545785
2003 -1.1978831 -1.6930698 0.5989288 -0.18525442 0.11640272 -0.1962622 0.8240458 -0.10757647 0.29243803 -0.84683496 0.110944405 -1.4494282 -0.06900057 1.4304218 -0.13218947 -0.15804768 0.64278615 -0.13214242 -0.41684377 -0.51622653 -0.010047534 0.8994309 -1.5282719 1.2359151 0.22051136 -0.4586691 0.3932388 1.257989 0.8566243 0.05244623 -0.22901489 0.85941726
case 0.31344652 1.3313937 0.35776797 -0.5980137 -0.59705716 -1.3059247 0.13943735 -0.21981658 -0.62646943 -0.37568587 0.41679993 0.51369417 -0.510738 -0.24888244 0.4284956 -0.97455865 -0.3799395 0.30281675 0.6257176 0.2065987 0.009385701 0.8093215 -0.25021487 -0.30569693 -0.70408124 -0.20552196 -0.30870113 -0.3621296 0.7802317 0.8968073 -1.1553608 0.48801786
execut -0.422887 1.2996888 1.7976408 -2.1999614 -0.97707385 -1.1433642 0.944223 1.1484548 -0.4973326 0.36363214 0.5549107 -0.8985112 0.7135491 0.5379252 0.7950383 -0.8370243 1.0163084 1.0117483 0.21520643 -0.037163056 -0.06691612 2.4237926 -0.91799146 -0.8384068 -0.95666975 -0.3476448 -0.030646421 0.09715634 0.24872285 1.0128353 -1.1620235 2.6501813
major -0.6197437 0.112220585 0.16840039 0.11373968 -0.22179528 -0.30078378 0.12735477 0.10186399 -0.044108804 -0.44128093 -0.07389486 0.08261017 -0.5679934 0.49196178 0.23604311 -0.39006257 -0.09816389 0.09479754 -0.06934596 0.31551537 0.07619188 0.69895566 -0.63880575 0.006739025 -0.15229289 -0.40169668 -0.29959887 0.3220305 0.7192974 0.42851675 -0.6507946 -0.0037368492
return 0.120228305 -0.29846764 0.018823083 -0.05889375 0.3638388 0.1975022 -0.14349416 0.8402972 0.09549061 -0.16827627 -0.3149501 -0.3773325 -0.35255688 0.5869848 0.07198534 -0.65978557 0.18158092 0.5858596 -0.15281232 -0.46314186 0.12666729 0.3938487 -0.469234 0.8302533 0.40016213 -0.031314764 0.08831165 -0.46619248 0.9275596 0.5726776 -0.43898812 0.75603485
result 0.55375123 -0.31426507 -0.3685161 -0.35002518 -0.012312786 -0.570253 -0.050504185 -0.31910393 -0.32451567 -0.682482 0.13527222 0.20446177 -0.7223927 -0.2983511 -0.0028231114 -0.34248692 -0.12622447 0.31460214 -0.22565933 0.59359384 -0.2160203 0.29100698 -0.2841661 -0.15686083 -0.25229666 -0.41078484 -0.4836209 0.04896665 0.54185045 0.43147543 -0.27764517 0.043114804
produc -1.4844639 -1.5004908 0.74691105 -0.09864837 -0.35330185 -0.030124107 0.19485825 0.21799745 0.3422844 0.40324634 -0.114688896 -0.33955497 0.326263 1.1786816 -0.14662346 -0.19937918 0.828326 -0.30943254 0.4132011 0.97630304 -0.6877577 0.47528347 0.08146888 0.60040176 0.4166642 0.1776833 -0.08023127 -0.7996441 -0.04921708 -0.8909879 -0.75163364 -0.043952674
name -0.75555736 -0.70674783 0.53867143 -0.12905572 -0.42179435 0.4608768 -0.0005224198 0.8562737 0.45714068 0.87392366 -0.18492925 0.005706771 0.16489407 0.9982778 -0.30254877 -0.76733744 0.5642739 0.28194335 0.6361473 0.89452165 -0.4964019 0.2895009 0.27663136 0.76598036 0.8137288 0.22648002 0.129825 -1.9127665 0.3219823 -0.48936695 -1.1473837 0.48763084
remain -0.123954 -0.80764765 0.17915241 -0.5491133 -0.012937097 -0.4565122 0.44849908 -0.26759273 -0.2919264 -0.71305776 0.19056398 -0.35594535 -0.56550986 0.1895975 -0.12564911 -0.12062583 0.043033708 -0.044847418 -0.45878485 0.3599987 0.016543914 0.48731694 -0.8319059 -0.10705892 -0.41231397 -0.5865672 -0.42046154 0.6999519 0.78210217 0.2985706 -0.24164072 0.19346382
wale 1.7076303 -0.5802351 -1.0413307 -0.04488752 1.2645836 0.5970468 -0.69647294 1.3805338 0.0006994324 -0.61186135 0.13284566 -1.0301439 -0.83687365 -0.14753179 -0.0022039441 -0.50881726 -0.6544774 1.3911712 -0.35053918 -0.4799001 0.13114253 0.43807378 -0.6818573 2.411853 0.20108014 0.30775857 -0.3923879 -0.77369964 1.5164459 1.7341412 -0.053737585 1.6165537
futur 0.27831063 -0.24083059 -0.3145183 -0.59390265 -0.3006538 -0.95608616 -0.06600507 -0.44209537 -0.05668497 -0.5755834 -0.05750054 0.3520784 -0.81422377 -0.4332058 0.17334904 -0.341251 -0.21843013 0.16906784 0.0029743125 0.9116788 -0.094156586 0.029123854 -0.24173722 -0.3127552 -0.30135942 -0.2272075 -0.70235586 -0.10400385 0.4796487 0.23277234 -0.48931977 -0.20672439
line 0.48616388 -0.9918102 -0.52851415 0.5065297 0.05566003 -0.72674394 -0.6752343 0.20732996 0.25491592 -0.47342482 -0.3355306 -0.17444555 -0.9390881 -0.014979731 0.43412086 -0.2598334 0.029861713 0.4333188 0.31306696 -0.051098 -0.81112945 -0.17111647 0.39537704 1.3336873 0.75296104 0.3505253 0.951994 0.15097983 0.09639776 -0.07743662 -0.2793636 0.20252995
leader 0.52487046 2.0377705 0.07429726 0.11954378 -0.0045983656 -0.6757292 -0.4152735 1.2854213 -0.26058328 -0.50718904 -1.1052337 0.48896402 -0.82475305 0.29011005 -0.3566524 -1.7244315 -0.34309334 1.7470703 0.71020955 -0.3274582 0.32745442 1.708716 0.282347 0.22405553 -0.052254576 -0.95173514 1.4281375 -1.2809695 1.7533667 0.5112562 -1.256834 0.63309103
realli 1.6973094 -1.2735634 -1.4972397 -0.041058514 0.31936568 -0.030552963 -1.1947126 0.64467263 0.04905703 -0.20680116 -0.5008301 1.0604355 -1.4736915 -0.75232375 -0.49503747 -0.6369589 -0.023485823 1.3397728 -0.10242273 2.2531667 -0.55970347 -0.7104576 0.91392976 -0.14232285 0.72045225 0.18733218 -1.5263306 -2.833602 0.28153634 0.4697632 0.0038818354 -0.30808297
softwar -1.1756749 -0.72632724 0.046127524 -0.46261925 -1.8974444 -2.696975 -0.0199569 -1.7917229 0.59761953 -0.49693024 0.734715 1.1880692 -0.9049703 -0.20069544 1.2307167 -0.21068054 0.09317621 -0.4129609 2.0068846 2.7121954 -1.5789021 0.0063162725 0.8839815 0.09986579 0.51759833 0.5525342 -0.47709736 -0.2291536 -1.2280754 -1.1115719 -1.7606589 -0.7169561
anoth 0.3580688 -1.0987031 -0.60942423 0.20760798 0.13695908 -0.06735563 -0.34962475 0.3510666 0.33577362 -0.069676995 -0.09608469 -0.05311901 -0.8048559 -0.016880374 -0.07244186 -0.397799 0.15770319 0.46319622 -0.16089787 0.56127304 -0.22634758 -0.3653623 -0.06415932 1.0460525 0.7244896 0.46541753 -0.4551912 -0.6706764 0.21795008 0.419674 -0.24083352 0.0427943
life 0.17893802 -0.85486966 -0.19467783 -0.12820382 -0.109670065 -0.17161354 -0.50595224 0.08931719 0.1616057 -0.0026736164 -0.31158882 0.1632364 -0.2249489 0.3158035 -0.08825442 -0.3927456 0.42658287 0.10011137 0.37761983 0.9304832 -0.4744354 -0.014267152 0.2800754 0.3657926 0.37557134 0.07916907 -0.18497613 -1.2487521 -0.023844795 -0.31365532 -0.2354937 -0.022593798
success -0.55281484 -1.2331034 0.08878485 0.109830044 -0.07263689 0.3254723 -0.063833535 0.42556357 0.3426063 0.07697526 -0.24361536 -0.20506652 -0.25914842 0.78493613 -0.1477403 -0.16532941 0.40397084 0.18770275 0.013785759 0.6946604 -0.11622575 0.0800831 -0.22610551 0.50595564 0.59294534 0.069122516 -0.36084735 -0.80489016 0.31236434 -0.07318051 -0.33715788 0.13257702
video -0.79692405 -3.2133868 -0.5100139 -0.42943525 -0.73465544 -0.9409424 -0.5901185 -0.5578047 1.0668582 -0.300117 -0.41286513 -0.13792445 -0.6461768 0.082171135 0.1775418 0.62889135 0.71400666 -0.10555759 1.0360988 3.218932 -1.6464891 -0.8000624 0.3772201 0.31760728 1.1032368 0.82754177 -0.863087 -1.3814528 -1.0491244 -1.7658017 -0.24801886 -0.27469614
find 0.3780863 -0.50692195 -0.44625258 -0.23847322 -0.5849453 -0.69759995 -0.3022576 -0.30855107 0.17411435 -0.20277102 -0.010478628 0.49188337 -0.58729774 -0.14494264 -0.008241682 -0.4130648 0.123876035 0.35977182 0.4611566 1.6188508 -0.39939812 -0.24403971 0.27922618 -0.1361758 0.38941583 0.17444624 -0.8452545 -1.3207749 -0.1653629 0.036529783 -0.4481378 -0.10389015
attack 0.5827529 1.0260501 -0.27644524 -0.08591228 -0.74774 -1.5805774 -0.22936659 -0.60781974 0.06577633 -0.69992805 0.0748452 0.5907888 -0.53543764 -0.3820245 0.29431865 -0.51300234 -0.3226085 0.5669189 1.3510629 0.6233194 -0.51943415 0.5183254 0.42100278 0.011636628 0.11634356 -0.3781375 0.75984836 -0.4301707 0.023231255 -0.17312075 -0.76400775 0.1764811
action -0.3923913 0.9539172 0.21439965 -0.13536842 -0.59434456 -0.84593016 -0.16181894 -0.03948901 -0.1513394 0.06240675 0.08102911 0.6207645 -0.25550035 0.047492955 0.31342286 -0.7512047 -0.1745193 0.056263078 0.96634287 0.5741242 -0.21099792 0.65610605 0.12154731 0.28737828 -0.034645084 0.1978461 -0.09102158 -0.8878968 0.31442475 0.31585094 -1.1817377 0.40318304
got 1.9928144 -0.9277762 -1.4220442 0.018788692 0.59942585 0.14467491 -0.98386824 0.72621745 0.03428119 -0.26991236 -0.28457624 0.5619276 -1.2542689 -0.56089175 -0.21822575 -0.81449884 0.00090561976 1.4448919 -0.3112388 1.2280124 -0.20555083 -0.59103465 0.33339587 0.40435162 0.6863477 0.22470318 -1.3108075 -2.3580763 0.54553115 1.0484147 0.076811135 0.35419703
hous -0.3025362 0.65875155 0.6222242 -0.33002067 -0.1450136 -0.81533426 0.018462904 -0.681888 -1.0762343 -0.73014385 -0.17735006 0.3308911 -0.87539685 0.4841837 0.33585536 -1.0119911 -0.18824601 -0.329282 0.16174161 -0.012683167 0.32323745 0.8989548 -0.615367 -0.24048816 -0.8118895 -0.6299873 0.25671393 0.58705336 1.2810943 0.32099405 -1.0044076 -0.03415731
trade -1.5031573 -0.38472712 0.96939844 -0.61854684 -0.48752716 -1.1371064 1.0266615 -0.73184174 -0.24771346 -1.0938967 0.3127989 -0.7671564 -0.31836766 0.75365096 0.0515723 -0.002128605 -0.123284765 -0.37991557 -0.08101821 0.33747628 0.1625122 1.4245874 -1.2632974 0.10817633 -0.94320655 -0.805123 -0.1380948 1.686653 1.0987856 0.11855132 -0.68433046 0.24829088
ask 0.71586424 1.0834888 0.009651312 -0.5568377 -0.6453164 -0.825189 0.08915699 -0.2879814 -0.3936851 -0.52659124 -0.2769257 0.4624235 -0.38251698 -0.41539237 -0.2752135 -0.87924725 0.034281712 0.70280504 0.5081672 0.70426 0.083138056 0.30646735 0.068762966 -0.7691458 -0.08081712 -0.54167527 0.01717581 -1.191195 0.48690853 0.20949943 -0.6164763 0.35563302
close -0.35809562 -1.0539104 0.106341705 -0.04337308 0.13791227 -0.49761966 0.25160176 -0.09294608 0.099791445 -0.56532824 0.2812467 -0.50711745 -0.36386615 0.5219603 0.16229816 -0.09681725 0.06298574 -0.016758576 -0.25277862 -0.07563663 -0.23285717 0.48613888 -0.71630806 0.93227375 0.08048883 -0.22400768 -0.0013967487 0.8861118 0.37859434 0.31301305 -0.3262453 0.35534814
import 0.39247224 -0.59011394 -0.60184246 -0.15625829 -0.17614974 -0.6481892 -0.19727577 -0.40045625 -0.21792236 -0.5613804 0.0844333 0.4660101 -1.0120397 -0.5131475 -0.07452656 -0.17543305 -0.2540934 0.27600375 -0.16265833 1.503623 -0.31129575 -0.02218745 -0.05118359 -0.30999672 -0.20170517 -0.04623024 -1.1807506 -0.3855112 0.29441386 0.36658606 -0.10264228 -0.29345596
pay -0.15817691 -0.063593395 -0.3989736 0.42590615 -0.3926927 -1.6600604 -0.25754732 -1.1487882 -0.12196587 -1.2972021 -0.4246113 0.59486395 -0.9703454 0.26547757 0.18965064 -0.8737502 0.3417247 -0.4088671 0.002244784 0.066690154 -0.22206004 0.71315163 -0.8282628 0.24252817 -0.5909308 -0.7379594 0.19807847 1.7725176 0.30006486 0.1972391 -0.43385857 -0.87307966
found -0.2378915 -0.3332298 0.43429476 -0.3151707 -0.69911116 -0.95996463 0.2936452 -0.6755933 0.21216577 -0.29930076 0.36248994 -0.2652881 0.1810665 0.4100907 0.36698765 -0.07405674 0.43543378 -0.12615497 0.75514823 0.54720837 -0.58007467 0.39969656 -0.20197076 0.24743867 0.062334605 -0.19856429 0.024733515 -0.21634367 -0.38181728 -0.2568592 -0.41302082 0.684618
franc 0.36270383 -1.8272581 -0.56265664 0.07026487 1.1651655 0.43833932 -0.20787682 1.0083723 0.043756887 -0.64732003 0.24876454 -1.3216809 -1.0901766 0.35645905 -0.013017371 -0.18170227 -0.45179093 0.66863275 -0.8508969 -0.43719223 -0.18318631 0.694691 -0.99975634 2.3661826 0.1267812 0.33171326 -0.3009867 0.8073466 1.5646155 1.2683678 -0.087108836 1.0581862
5 -0.90978485 -4.06296 -0.1802246 0.27310905 1.047994 -1.0731814 0.19709887 -0.10242215 0.05913266 -1.6890231 0.02846946 -1.7174412 -1.0223124 1.2961526 -0.5724254 -0.084744275 0.9823481 -0.31492656 -1.1412729 -0.43794557 -1.4222734 1.4420666 -1.1515936 2.4601042 0.2861446 -0.50647795 1.3280005 3.0269575 0.75452995 -0.37911585 0.3582831 0.55535847
took -0.48387113 -1.2636691 0.2307084 0.3196477 0.3159601 0.42242005 0.074630074 0.8681515 0.22288324 0.11775069 -0.08632147 -0.7994699 -0.16545655 1.0940533 -0.11504459 -0.6243781 0.52693206 0.3481195 -0.19971845 -0.28204298 -0.25038603 0.3648221 -0.41639376 1.6580043 0.8690103 0.3757785 0.40752327 -0.42155704 0.58196574 0.306162 -0.39368504 0.8292363
site 0.4816584 -0.5916149 -0.53426343 -0.43911675 -1.2901975 -2.0532002 -0.13512157 -1.5161947 0.44348267 -0.81923467 0.5762795 0.71470255 -0.5761633 -0.45634037 0.1657287 0.059836134 0.13070263 0.056004718 1.3772618 2.2653658 -1.1333988 -0.1681905 0.44436327 -0.4555671 0.43873343 -0.2946959 -0.32735282 -0.84315413 -0.94380367 -0.647594 -0.45664707 -0.11943515
polit 0.9014731 1.94001 -0.12900634 -0.62720615 -0.6471088 -0.9600727 -0.29251552 0.1482462 -0.08747717 -0.63358504 -0.7272043 0.8756872 -0.5012484 -0.33189964 -0.4342766 -1.1319681 -0.36160675 0.987085 0.73249614 0.5739248 0.23282212 0.6476801 0.1327948 -1.1622474 -0.12467193 -1.1871186 0.42501652 -1.8619384 1.0920479 0.11347376 -0.8525598 0.31135803
howard 0.9713379 2.100177 0.059788805 0.07458595 0.041000318 -0.5351059 -0.58584034 1.3280083 -0.5302152 -0.428932 -1.1161346 0.58344805 -0.55773044 0.3492318 -0.6060778 -1.9596704 -0.077032775 1.9719857 0.6970791 -0.21184498 0.046116263 1.6358851 0.6124935 -0.2682121 0.019595938 -1.193149 1.6014408 -2.2408195 1.7742941 0.37622485 -1.2701379 0.8500332
turn 0.12547062 -0.37011763 -0.36169085 0.2961178 -0.026285402 -0.3876167 -0.41896796 0.025800627 0.08059803 -0.2038722 -0.26496664 0.32262135 -0.59684616 -0.008085625 -0.046982083 -0.5691737 0.06500071 0.2306362 0.2909815 0.63105094 -0.34925288 0.084204644 0.22698246 0.72143394 0.3671746 0.2539636 -0.11405001 -0.715288 0.27655014 0.12866387 -0.46244118 -0.1481285
4 -0.7639698 -4.138114 -0.2302128 0.12874615 1.0852938 -1.1816933 0.1556136 -0.09234355 0.10389787 -1.7814345 -0.015617967 -1.7547588 -1.1249439 1.3587801 -0.4163357 -0.17258109 0.9390573 -0.31629184 -1.1015652 -0.59642285 -1.4381565 1.5606041 -1.288648 2.4125352 0.22751093 -0.6899194 1.4193357 3.0536067 0.9717952 -0.38018703 0.15539296 0.671478
differ 0.3638699 -0.7295377 -0.68091494 -0.13364518 -0.62833446 -0.79175055 -0.4446961 -0.2301257 0.31532866 -0.24578734 -0.07852695 0.67876923 -0.67419684 -0.33765784 -0.07380495 -0.3084739 -0.012805745 0.45974174 0.7205843 2.2396104 -0.86926335 -0.27859256 0.5212651 -0.18458635 0.45296347 0.33851156 -1.0809952 -1.6569538 -0.3846151 -0.23527843 -0.35828635 -0.23597692
lot 1.7674552 -1.2396909 -1.4526099 -0.12672861 0.17887221 -0.3470561 -0.9412196 -0.060349766 0.04878357 -0.62403095 -0.28061336 0.7902724 -1.2504874 -0.79573727 -0.21514405 -0.5248039 0.019762084 1.0268345 -0.12900533 2.1101732 -0.44364694 -0.71429485 0.42075053 -0.13454407 0.40595806 0.11228698 -1.733347 -2.0628514 0.0031063624 0.56242293 0.1934275 -0.21481046
launch -0.81717527 -0.45546034 0.14763011 -0.5721348 -1.0012271 -0.67126155 0.40626097 -0.4641733 1.1695772 -0.98354644 -0.13924289 -0.3742258 -0.100953996 0.8381073 0.6440391 0.3810721 0.20616508 0.13977264 0.7800572 0.5007491 0.05490482 0.08599597 -0.9238661 -0.40413654 0.68564135 -0.6717071 0.06316343 0.19473325 -0.11055966 -0.5975704 -0.36220428 0.49286178
websit 0.8814124 -0.19878101 -0.13629946 -1.7508814 -1.2450548 -1.994121 0.55508494 -1.1987975 0.5768436 -0.591499 0.7959035 -0.075603396 0.3272732 -0.43708184 -0.47325176 0.30001104 0.09936444 0.33863062 1.5101353 1.8970091 -1.1804732 0.15428546 0.094879866 -1.0750135 0.116288275 -1.0929691 0.05699203 -1.6121109 -0.47669828 -1.0306894 -0.3836534 0.91081095
presid -0.58231807 1.3382423 0.9636934 -0.78847694 -0.07912747 -0.6088841 0.46135205 0.3287542 -0.15857527 -0.55815417 -0.17256968 -0.3616908 0.024561351 0.6147034 0.2809579 -0.5171175 -0.028057413 0.5467934 0.36550692 -0.2771563 0.3826757 1.4249543 -0.53690946 -0.41781884 -0.5175234 -1.0640945 0.80726385 0.22798711 1.3133215 0.23441082 -1.0241154 0.7684055
came 0.07397419 -0.721357 -0.06959215 0.11616176 0.54558533 0.42937848 0.0053459685 0.63388497 0.13563353 -0.43390465 -0.16856505 -0.66162574 -0.39767474 0.74060845 0.14455424 -0.4109127 0.19412938 0.67294836 -0.3519897 -0.42641217 0.32464975 0.25298902 -0.7647632 0.8912122 0.49897212 -0.08519767 -0.1535217 -0.20164658 0.9508538 0.81166935 -0.21541835 0.9344689
provid 0.10480165 -0.0046794717 -0.2539087 -0.55440557 -1.1610931 -2.00183 -0.08145405 -1.3062918 -0.049831998 -0.90452653 0.061439157 0.7627177 -0.6969247 -0.5143866 0.40714645 -0.06801427 -0.08162849 -0.18091294 1.0724617 1.8146745 -0.75160193 0.3788412 0.08463422 -0.6434362 -0.4820869 -0.47150016 -0.3451123 0.06143497 -0.1652194 -0.62850827 -0.6593983 -0.5277245
talk 0.59118277 0.34057972 -0.23886167 -0.7141555 0.07765691 -0.40251523 0.08488618 -0.0044037052 -0.16812532 -0.81419635 -0.13028243 -0.06286223 -0.62366056 -0.46028566 -0.07073919 -0.40561795 -0.41667402 0.66264486 -0.1482339 0.5078604 0.35686138 0.18929769 -0.5594977 -0.19281 -0.33413002 -0.33080745 -0.78174543 -0.4482369 1.0554072 0.8192731 -0.3309254 0.46792626
better 1.1994106 -0.86454296 -1.2020841 0.013664281 0.17255369 -0.7939394 -0.8162081 -0.33386064 -0.2755299 -0.8111853 -0.3067726 0.86642325 -1.433336 -0.7985356 0.042910237 -0.46114504 -0.22353762 0.55422103 -0.17497039 1.4140965 -0.5854111 -0.17222442 0.2915561 -0.2898176 -0.056257945 -0.073655196 -1.0306076 -0.6583413 0.32167217 0.43830547 -0.0043064747 -0.6294303
programm 0.8261335 -0.35305768 0.017038109 -1.5522194 -0.75635785 -1.0229499 0.47020072 -0.5532667 0.66554195 -0.44135675 0.045361716 -0.48792687 0.563987 -0.15585825 -0.66679597 0.3963864 0.1698212 0.36756703 1.3005369 1.5566201 -0.6759507 0.031856183 -0.17866988 -1.0254929 0.27995074 -1.123095 -0.1434625 -2.3945756 0.03175713 -1.0025977 -0.0121231135 1.1532614
spokesman 0.9139166 1.8442484 0.56925076 -1.2508528 -0.288531 -1.2974291 0.36861616 0.37513688 -1.0832125 -0.79386497 -0.07075945 -0.11854137 -0.23823327 -0.36133343 -0.12920393 -0.8012176 -0.32486907 1.3936462 0.5865037 0.39384678 0.4394149 1.4351809 0.35616523 -0.79836106 -0.97193104 -1.0835085 0.58594507 -1.1733534 1.1145442 0.4437669 -0.79761004 1.2731848
warn 0.0028790624 0.81345266 0.13829547 -0.5279377 -0.6665214 -1.1745268 0.5333313 -0.6790621 -0.34882542 -0.9954053 0.2762814 0.14674029 -0.54902565 -0.23166649 0.37064597 -0.5393579 -0.2530905 0.2345317 0.25137565 0.28732717 0.027364174 0.766947 -0.73346955 -0.47434118 -0.52785987 -0.7099935 -0.16914771 0.5900259 0.64503515 0.49107003 -0.7135817 0.43983838
clear 0.6705102 0.48893362 -0.34885886 -0.13708463 0.069572955 -0.611837 -0.47029066 0.3860184 -0.53640145 -0.32836467 -0.36382017 0.6310816 -0.9124239 -0.41833934 -0.19354923 -0.900649 -0.25479186 0.59351677 0.06509 0.30688626 -0.27288887 0.53672755 0.39573532 0.028259005 -0.087788776 -0.26962203 0.24835017 -0.7154878 0.90240806 0.331695 -0.65769136 -0.0349276
concern 0.07766801 0.77503854 0.023787536 -0.3090579 -0.55198324 -1.296513 0.04876639 -0.84720045 -0.76299554 -1.0623125 0.08056652 0.6634389 -0.95037556 -0.4233873 0.06991563 -0.6586746 -0.2544409 0.04972889 0.16955207 0.97800714 -0.15924357 0.6745406 -0.22838423 -0.8057797 -0.77685744 -0.6426336 -0.53789824 0.25544018 0.806733 0.4011465 -0.6567022 -0.27795848
radio 1.5285773 -1.3443642 -0.058414184 -2.2492943 -0.664671 -1.1060399 0.6491138 -0.33540457 0.8776076 -0.408735 0.4748992 -1.0262748 0.8064254 -0.21278727 -1.0297673 0.7537966 0.41454765 0.8142528 1.3825096 2.0705192 -1.2562323 -0.09133021 -0.08177231 -1.0834309 0.5875362 -1.3331546 -0.30451512 -3.4141898 -0.2614679 -1.115935 0.33562812 2.2259958
list -1.1575536 -1.1966994 0.5968074 -0.42744693 -0.5827828 -0.32241625 0.32927147 -0.035819836 0.40935305 -0.080403365 0.13079254 -0.26163444 0.13868545 0.8390553 0.0004013181 0.060856268 0.46148467 -0.37266785 0.32461318 1.0232081 -0.18831101 0.24352841 -0.5745853 0.30961856 0.21181963 -0.18600398 -0.4343037 -0.23563707 0.09044937 -0.32301733 -0.67388666 0.04305008
creat -0.310664 -0.44948173 -0.10627614 -0.248274 -0.9020202 -0.9981309 -0.13482945 -0.76338077 0.31427184 -0.5364644 -0.10044691 0.4073626 -0.4269137 -0.15727448 0.04621255 -0.002281459 0.01609174 0.02549262 0.59699464 1.8088844 -0.5821751 -0.024482481 0.03401658 -0.32108685 0.10618276 -0.0027945903 -0.79866874 -0.6798731 -0.28354064 -0.35457334 -0.20909671 -0.24750309
research -0.32555816 -0.20753488 0.35860473 -1.0374134 -1.1518406 -1.6372037 0.6125206 -1.3486773 0.08839677 -1.0987824 0.4930587 -0.1143781 -0.09878851 0.053995665 0.2951195 0.39221594 -0.020685589 -0.11664109 0.84512186 1.7390039 -0.66475624 0.64076287 -0.32239315 -1.080215 -0.6215058 -0.9185751 -0.40778932 0.19802685 -0.22462767 -0.66379356 -0.3435458 0.22626385
onlin -0.10025252 -1.5364345 -0.46234632 -0.44251707 -1.201426 -1.4462107 0.048320808 -1.3057991 0.6221303 -0.80723566 0.26431426 0.2754025 -0.62075585 -0.21504763 -0.007821446 0.20069927 0.41932395 -0.16812971 0.87646854 2.3786738 -0.8996049 -0.4903602 -0.1938013 -0.13969688 0.4929124 0.05153558 -0.8400933 -0.32539642 -0.968695 -0.8312231 -0.10452034 -0.26381946
without 0.41280872 0.48231423 -0.22667171 0.053566687 -0.34031603 -0.8716264 -0.35965025 -0.061304547 -0.2830023 -0.042977065 0.08455352 0.50393957 -0.72605294 -0.26099017 0.28381038 -0.7531793 -0.29312178 0.24959503 0.66938853 0.7219834 -0.26834613 0.25056496 0.28107035 0.55715096 -0.09483958 0.46659052 -0.43175542 -0.73563224 0.31960103 0.50825334 -0.7846416 0.058345914
titl -0.3263174 -2.6119015 -0.46953574 0.46681115 0.6592996 1.0336176 -0.43607116 1.3182453 0.9208356 0.16475014 -0.23561561 -0.82384014 -0.72390425 1.2359718 0.28834617 -0.20080417 0.37720993 0.7905609 -0.36559463 0.45120177 -0.34274527 -0.13044122 -0.54847586 1.8630291 1.5147312 0.70485455 -0.8881014 -1.1456015 0.46005175 0.39054748 -0.23196882 0.8631694
suggest 0.2665842 0.8634143 0.1147875 -0.44317964 -0.6386464 -1.0600343 0.2726916 -0.737082 -0.26482445 -1.1736912 -0.21458748 0.16884442 -0.37938347 -0.080213465 -0.07137191 -0.4090384 -0.14623034 0.29046077 0.39836818 0.47595316 -0.020456187 0.5819741 -0.514057 -0.9513015 -0.34723723 -1.0950433 0.15822583 -0.19131753 0.7240944 0.15233329 -0.38140547 0.43773487
real 1.1237217 -0.5721164 -0.74062467 -0.31564596 0.25592813 -0.44482708 -0.50004196 0.25302908 -0.020216743 -0.21932282 -0.048492942 0.23077407 -0.68147486 -0.55001396 -0.38169193 -0.3127447 -0.1078405 0.6253421 0.060764093 0.9676473 -0.51162016 -0.03468746 0.4049296 0.1815692 0.14267455 -0.048079964 -0.47935358 -1.2976233 0.2962564 0.22874786 -0.023116533 0.16112657
